{"learner":{"attributes":{"best_iteration":"285","best_score":"0.6319393975615587"},"feature_names":["monthly_income","account_age_months","observation_weeks","salary_delay_weeks_mean","salary_delay_weeks_max","salary_delay_weeks_min","salary_delay_weeks_std","salary_delay_weeks_trend","salary_delay_weeks_consec_high","salary_drop_pct_mean","salary_drop_pct_max","salary_drop_pct_min","salary_drop_pct_std","salary_drop_pct_trend","savings_change_mean","savings_change_max","savings_change_min","savings_change_std","savings_change_trend","liquidity_ratio_mean","liquidity_ratio_max","liquidity_ratio_min","liquidity_ratio_std","liquidity_ratio_trend","utility_delay_days_mean","utility_delay_days_max","utility_delay_days_min","utility_delay_days_std","utility_delay_days_trend","utility_delay_days_consec_high","emi_delay_days_mean","emi_delay_days_max","emi_delay_days_min","emi_delay_days_std","emi_delay_days_trend","emi_delay_days_consec_high","failed_autodebits_mean","failed_autodebits_max","failed_autodebits_min","failed_autodebits_std","failed_autodebits_trend","cc_min_payment_ratio_mean","cc_min_payment_ratio_max","cc_min_payment_ratio_min","cc_min_payment_ratio_std","cc_min_payment_ratio_trend","discretionary_drop_pct_mean","discretionary_drop_pct_max","discretionary_drop_pct_min","discretionary_drop_pct_std","discretionary_drop_pct_trend","atm_withdrawal_spike_mean","atm_withdrawal_spike_max","atm_withdrawal_spike_min","atm_withdrawal_spike_std","atm_withdrawal_spike_trend","cash_hoarding_flag_mean","cash_hoarding_flag_max","cash_hoarding_flag_min","cash_hoarding_flag_std","cash_hoarding_flag_trend","lending_app_transfers_mean","lending_app_transfers_max","lending_app_transfers_min","lending_app_transfers_std","lending_app_transfers_trend","gambling_txns_mean","gambling_txns_max","gambling_txns_min","gambling_txns_std","gambling_txns_trend","credit_util_change_mean","credit_util_change_max","credit_util_change_min","credit_util_change_std","credit_util_change_trend","multi_account_stress_mean","multi_account_stress_max","multi_account_stress_min","multi_account_stress_std","multi_account_stress_trend","channel_anomaly_score_mean","channel_anomaly_score_max","channel_anomaly_score_min","channel_anomaly_score_std","channel_anomaly_score_trend","failed_autodebits_per_income","salary_drop_to_income_ratio","atm_spike_to_savings_ratio","salary_delay_x_failed_autodebits","liquidity_x_salary_drop","segment_encoded","salary_delay_x_failed_autodebits_v2","payment_stress_composite","liquidity_stress","salary_delay_per_account_age","failed_autodebits_per_account_age","credit_util_x_payment_stress","lending_app_x_gambling","min_to_avg_liquidity_ratio","liquidity_volatility","payment_reliability_score","credit_health_score","overall_stress_score"],"feature_types":["float","int","int","float","float","float","float","float","int","float","float","float","float","float","float","float","float","float","float","float","float","float","float","float","float","float","float","float","float","int","float","float","float","float","float","int","float","float","float","float","float","float","float","float","float","float","float","float","float","float","float","float","float","float","float","float","float","float","float","float","float","float","float","float","float","float","float","float","float","float","float","float","float","float","float","float","float","float","float","float","float","float","float","float","float","float","float","float","float","float","float","int","float","float","float","float","float","float","float","float","float","float","float","float"],"gradient_booster":{"model":{"gbtree_model_param":{"num_parallel_tree":"1","num_trees":"300"},"iteration_indptr":[0,1,2,3,4,5,6,7,8,9,10,11,12,13,14,15,16,17,18,19,20,21,22,23,24,25,26,27,28,29,30,31,32,33,34,35,36,37,38,39,40,41,42,43,44,45,46,47,48,49,50,51,52,53,54,55,56,57,58,59,60,61,62,63,64,65,66,67,68,69,70,71,72,73,74,75,76,77,78,79,80,81,82,83,84,85,86,87,88,89,90,91,92,93,94,95,96,97,98,99,100,101,102,103,104,105,106,107,108,109,110,111,112,113,114,115,116,117,118,119,120,121,122,123,124,125,126,127,128,129,130,131,132,133,134,135,136,137,138,139,140,141,142,143,144,145,146,147,148,149,150,151,152,153,154,155,156,157,158,159,160,161,162,163,164,165,166,167,168,169,170,171,172,173,174,175,176,177,178,179,180,181,182,183,184,185,186,187,188,189,190,191,192,193,194,195,196,197,198,199,200,201,202,203,204,205,206,207,208,209,210,211,212,213,214,215,216,217,218,219,220,221,222,223,224,225,226,227,228,229,230,231,232,233,234,235,236,237,238,239,240,241,242,243,244,245,246,247,248,249,250,251,252,253,254,255,256,257,258,259,260,261,262,263,264,265,266,267,268,269,270,271,272,273,274,275,276,277,278,279,280,281,282,283,284,285,286,287,288,289,290,291,292,293,294,295,296,297,298,299,300],"tree_info":[0,0,0,0,0,0,0,0,0,0,0,0,0,0,0,0,0,0,0,0,0,0,0,0,0,0,0,0,0,0,0,0,0,0,0,0,0,0,0,0,0,0,0,0,0,0,0,0,0,0,0,0,0,0,0,0,0,0,0,0,0,0,0,0,0,0,0,0,0,0,0,0,0,0,0,0,0,0,0,0,0,0,0,0,0,0,0,0,0,0,0,0,0,0,0,0,0,0,0,0,0,0,0,0,0,0,0,0,0,0,0,0,0,0,0,0,0,0,0,0,0,0,0,0,0,0,0,0,0,0,0,0,0,0,0,0,0,0,0,0,0,0,0,0,0,0,0,0,0,0,0,0,0,0,0,0,0,0,0,0,0,0,0,0,0,0,0,0,0,0,0,0,0,0,0,0,0,0,0,0,0,0,0,0,0,0,0,0,0,0,0,0,0,0,0,0,0,0,0,0,0,0,0,0,0,0,0,0,0,0,0,0,0,0,0,0,0,0,0,0,0,0,0,0,0,0,0,0,0,0,0,0,0,0,0,0,0,0,0,0,0,0,0,0,0,0,0,0,0,0,0,0,0,0,0,0,0,0,0,0,0,0,0,0,0,0,0,0,0,0,0,0,0,0,0,0,0,0,0,0,0,0,0,0,0,0,0,0,0,0,0,0,0,0,0,0,0,0,0,0],"trees":[{"base_weights":[3.938138E-3,-7.6015896E-1,2.9957536E-1,-1.1548686E0,-5.2027476E-1,5.166421E-1,-3.9479858E-1,-1.3136008E0,-8.76856E-1,-3.410203E-1,-1.0726825E0,1.7267396E-1,2.683751E-2,-6.266482E-1,2.5978116E-2,-2.0046284E-2,-1.4774398E-2,2.4071565E-2,-1.5887162E-2,-8.27234E-3,2.6108205E-2,-1.1841216E-2,-1.9160466E-2,1.007255E-2,-2.5745446E-3,-4.594633E-3,-1.2370446E-2,-5.041288E-3,4.5459038E-3],"categories":[],"categories_nodes":[],"categories_segments":[],"categories_sizes":[],"default_left":[0,0,0,0,0,0,0,0,0,0,0,0,0,0,0,0,0,0,0,0,0,0,0,0,0,0,0,0,0],"id":0,"left_children":[1,3,5,7,9,11,13,15,17,19,21,23,-1,25,27,-1,-1,-1,-1,-1,-1,-1,-1,-1,-1,-1,-1,-1,-1],"loss_changes":[1.15711E3,1.3346082E2,5.5727026E2,2.0566284E1,8.7192E1,1.4268413E3,8.614505E1,8.4328E0,1.6721642E2,4.23403E2,1.1310318E1,4.7826926E2,0E0,4.6217422E1,3.9410458E1,0E0,0E0,0E0,0E0,0E0,0E0,0E0,0E0,0E0,0E0,0E0,0E0,0E0,0E0],"parents":[2147483647,0,0,1,1,2,2,3,3,4,4,5,5,6,6,7,7,8,8,9,9,10,10,11,11,13,13,14,14],"right_children":[2,4,6,8,10,12,14,16,18,20,22,24,-1,26,28,-1,-1,-1,-1,-1,-1,-1,-1,-1,-1,-1,-1,-1,-1],"split_conditions":[9.062485E-1,7.783841E-1,5E-1,1.6407366E-3,5E-1,4.3320274E-1,1.7222794E0,1.2404568E0,6.25E-2,4.3320274E-1,1.6108783E-1,4.330127E-1,2.683751E-2,4.330127E-1,8.41188E-2,-2.0046284E-2,-1.4774398E-2,2.4071565E-2,-1.5887162E-2,-8.27234E-3,2.6108205E-2,-1.1841216E-2,-1.9160466E-2,1.007255E-2,-2.5745446E-3,-4.594633E-3,-1.2370446E-2,-5.041288E-3,4.5459038E-3],"split_indices":[103,103,59,98,59,59,89,25,98,59,22,59,0,69,79,0,0,0,0,0,0,0,0,0,0,0,0,0,0],"split_type":[0,0,0,0,0,0,0,0,0,0,0,0,0,0,0,0,0,0,0,0,0,0,0,0,0,0,0,0,0],"sum_hessian":[5.11875E3,1.42675E3,3.692E3,5.3575E2,8.91E2,2.8135E3,8.785E2,3.3525E2,2.005E2,6.7575E2,2.1525E2,2.2835E3,5.3E2,5.6625E2,3.1225E2,1.785E2,1.5675E2,1.925E1,1.8125E2,6.05E2,7.075E1,1.4375E2,7.15E1,8.845E2,1.399E3,2.8875E2,2.775E2,1.36E2,1.7625E2],"tree_param":{"num_deleted":"0","num_feature":"104","num_nodes":"29","size_leaf_vector":"1"}},{"base_weights":[2.147549E-3,-7.1471703E-1,3.174681E-1,-1.094714E0,-4.6728578E-1,-1.805935E-1,5.7981914E-1,-1.2370578E0,-7.081484E-1,2.6506383E-2,-9.2923844E-1,7.181535E-2,-5.799538E-1,2.6718616E-2,-4.623952E-2,-1.6896926E-2,2.3782486E-3,-7.118432E-3,-1.5922224E-2,-1.9291727E-2,-9.901616E-3,-4.253718E-3,2.6322875E-2,-1.0047922E-2,-1.1926985E-3,-5.3541367E-3,2.8202264E-3],"categories":[],"categories_nodes":[],"categories_segments":[],"categories_sizes":[],"default_left":[0,0,0,0,0,0,0,0,0,0,0,0,0,0,0,0,0,0,0,0,0,0,0,0,0,0,0],"id":1,"left_children":[1,3,5,7,9,11,13,15,17,-1,19,21,23,-1,25,-1,-1,-1,-1,-1,-1,-1,-1,-1,-1,-1,-1],"loss_changes":[1.163314E3,1.4620392E2,4.6748755E2,3.149292E1,1.0788596E3,1.2470657E2,2.0580798E3,1.14296875E1,1.2745918E1,0E0,7.572772E1,5.5428827E2,3.8560715E1,0E0,1.4568733E2,0E0,0E0,0E0,0E0,0E0,0E0,0E0,0E0,0E0,0E0,0E0,0E0],"parents":[2147483647,0,0,1,1,2,2,3,3,4,4,5,5,6,6,7,7,8,8,10,10,11,11,12,12,14,14],"right_children":[2,4,6,8,10,12,14,16,18,-1,20,22,24,-1,26,-1,-1,-1,-1,-1,-1,-1,-1,-1,-1,-1,-1],"split_conditions":[9.225686E-1,5.6869173E-3,5.6869173E-3,7.4313307E-1,1E0,0E0,1E0,4.0744895E-1,5E-1,2.6506383E-2,7.018387E-1,-2.4888732E-1,1.2424644E0,2.6718616E-2,1.4595216E-2,-1.6896926E-2,2.3782486E-3,-7.118432E-3,-1.5922224E-2,-1.9291727E-2,-9.901616E-3,-4.253718E-3,2.6322875E-2,-1.0047922E-2,-1.1926985E-3,-5.3541367E-3,2.8202264E-3],"split_indices":[103,69,69,4,67,70,67,7,61,0,89,70,103,0,53,0,0,0,0,0,0,0,0,0,0,0,0],"split_type":[0,0,0,0,0,0,0,0,0,0,0,0,0,0,0,0,0,0,0,0,0,0,0,0,0,0,0],"sum_hessian":[5.142789E3,1.5699199E3,3.5728691E3,6.15719E2,9.5420087E2,1.2324698E3,2.3403992E3,4.4597668E2,1.6974232E2,1.5098856E2,8.032123E2,7.5572754E2,4.7674234E2,7.209509E2,1.6194482E3,4.4122702E2,4.7496743E0,1.2674383E2,4.299849E1,2.1998888E2,5.8322345E2,6.2798706E2,1.2774047E2,3.5524496E2,1.2149735E2,6.822328E2,9.372155E2],"tree_param":{"num_deleted":"0","num_feature":"104","num_nodes":"27","size_leaf_vector":"1"}},{"base_weights":[-8.079016E-3,-6.941112E-1,2.9529294E-1,-1.2096387E0,-5.3219235E-1,-1.7850418E-1,5.846147E-1,-1.3738823E0,-8.738917E-1,-8.3283806E-1,-1.5797572E-1,-6.8263346E-1,1.41709E-2,2.6523655E-2,-6.3095234E-2,-1.5067184E-2,-2.1181036E-2,-1.2610752E-2,6.4172046E-3,-1.2373705E-2,-1.5713645E-3,2.5926089E-2,-8.282492E-3,-6.961436E-3,-1.3910675E-2,-5.7186824E-3,3.4706546E-3,-3.821661E-3,6.924992E-3],"categories":[],"categories_nodes":[],"categories_segments":[],"categories_sizes":[],"default_left":[0,0,0,0,0,0,0,0,0,0,0,0,0,0,0,0,0,0,0,0,0,0,0,0,0,0,0,0,0],"id":2,"left_children":[1,3,5,7,9,11,13,15,17,19,21,23,25,-1,27,-1,-1,-1,-1,-1,-1,-1,-1,-1,-1,-1,-1,-1,-1],"loss_changes":[1.0746179E3,1.3022266E2,4.9102527E2,1.7457886E1,1.354307E2,1.3217546E2,1.9932239E3,7.9489136E0,1.1961372E1,4.0342957E1,5.1705676E2,2.0189377E1,1.0521505E2,0E0,1.9310583E2,0E0,0E0,0E0,0E0,0E0,0E0,0E0,0E0,0E0,0E0,0E0,0E0,0E0,0E0],"parents":[2147483647,0,0,1,1,2,2,3,3,4,4,5,5,6,6,7,7,8,8,9,9,10,10,11,11,12,12,14,14],"right_children":[2,4,6,8,10,12,14,16,18,20,22,24,26,-1,28,-1,-1,-1,-1,-1,-1,-1,-1,-1,-1,-1,-1,-1,-1],"split_conditions":[9.225686E-1,4.940114E-2,1.4595216E-2,6.1065424E-2,1.6407366E-3,1.0656928E-1,1E0,9.907577E-1,9.005948E-2,2.7455822E-1,1E0,2.4672592E-1,5.6869173E-3,2.6523655E-2,1.0401678E0,-1.5067184E-2,-2.1181036E-2,-1.2610752E-2,6.4172046E-3,-1.2373705E-2,-1.5713645E-3,2.5926089E-2,-8.282492E-3,-6.961436E-3,-1.3910675E-2,-5.7186824E-3,3.4706546E-3,-3.821661E-3,6.924992E-3],"split_indices":[103,32,53,26,98,6,53,67,90,26,67,60,69,0,53,0,0,0,0,0,0,0,0,0,0,0,0,0,0],"split_type":[0,0,0,0,0,0,0,0,0,0,0,0,0,0,0,0,0,0,0,0,0,0,0,0,0,0,0,0,0],"sum_hessian":[5.158538E3,1.581216E3,3.5773223E3,3.741646E2,1.2070513E3,1.3561432E3,2.221179E3,2.4619006E2,1.2797454E2,6.673866E2,5.3966473E2,3.7397964E2,9.821635E2,7.0707086E2,1.5141082E3,1.1422103E2,1.3196904E2,1.2322526E2,4.7492824E0,5.953964E2,7.199013E1,9.572065E1,4.439441E2,2.5773523E2,1.16244415E2,3.494837E2,6.326798E2,1.0966682E3,4.1743988E2],"tree_param":{"num_deleted":"0","num_feature":"104","num_nodes":"29","size_leaf_vector":"1"}},{"base_weights":[-1.6710548E-2,-6.4009196E-1,3.0918697E-1,-9.468778E-1,-2.770768E-1,5.355394E-1,-4.2064553E-1,-1.1210598E0,-5.154007E-1,2.5826816E-2,-6.976122E-1,2.0497827E-1,2.6138984E-2,-7.8858405E-1,-2.1899916E-1,-1.2448522E-2,-1.808406E-2,-1.1922041E-2,-2.1299869E-3,2.5534658E-2,-1.1530819E-2,9.881129E-3,-1.866391E-3,-3.2573857E-3,-1.2741349E-2,1.2085384E-2,-5.9924447E-3],"categories":[],"categories_nodes":[],"categories_segments":[],"categories_sizes":[],"default_left":[0,0,0,0,0,0,0,0,0,0,0,0,0,0,0,0,0,0,0,0,0,0,0,0,0,0,0],"id":3,"left_children":[1,3,5,7,9,11,13,15,17,-1,19,21,-1,23,25,-1,-1,-1,-1,-1,-1,-1,-1,-1,-1,-1,-1],"loss_changes":[1.040082E3,1.9479285E2,5.558044E2,6.972485E1,7.482966E2,1.1897964E3,5.8396896E1,2.6050781E1,3.6045036E1,0E0,2.8169205E2,3.7783978E2,0E0,2.3190414E1,1.3113245E2,0E0,0E0,0E0,0E0,0E0,0E0,0E0,0E0,0E0,0E0,0E0,0E0],"parents":[2147483647,0,0,1,1,2,2,3,3,4,4,5,5,6,6,7,7,8,8,10,10,11,11,13,13,14,14],"right_children":[2,4,6,8,10,12,14,16,18,-1,20,22,-1,24,26,-1,-1,-1,-1,-1,-1,-1,-1,-1,-1,-1,-1],"split_conditions":[9.4205815E-1,1.6407366E-3,5E-1,1.2535914E0,1E0,4.3320274E-1,1.265862E0,1E0,1.3493397E0,2.5826816E-2,2.5E-1,4.330127E-1,2.6138984E-2,2E0,2E0,-1.2448522E-2,-1.808406E-2,-1.1922041E-2,-2.1299869E-3,2.5534658E-2,-1.1530819E-2,9.881129E-3,-1.866391E-3,-3.2573857E-3,-1.2741349E-2,1.2085384E-2,-5.9924447E-3],"split_indices":[103,98,59,92,67,59,31,53,25,0,61,59,0,29,31,0,0,0,0,0,0,0,0,0,0,0,0],"split_type":[0,0,0,0,0,0,0,0,0,0,0,0,0,0,0,0,0,0,0,0,0,0,0,0,0,0,0],"sum_hessian":[5.1148364E3,1.7556277E3,3.3592087E3,9.49162E2,8.0646576E2,2.5647805E3,7.9442816E2,6.7323E2,2.7593198E2,1.2840176E2,6.7806396E2,2.0781702E3,4.8661035E2,2.784786E2,5.159495E2,3.6210773E2,3.1112225E2,1.3371152E2,1.4222044E2,3.7495464E1,6.405685E2,8.182843E2,1.259886E3,6.3743958E1,2.1473465E2,8.548572E1,4.3046384E2],"tree_param":{"num_deleted":"0","num_feature":"104","num_nodes":"27","size_leaf_vector":"1"}},{"base_weights":[-2.8868928E-3,-6.616694E-1,2.615451E-1,-1.1831541E0,-4.7973388E-1,-2.3658408E-1,5.680205E-1,-1.3101896E0,-8.926714E-1,-2.8527158E-1,-1.0838485E0,1.5049751E-1,-5.5789655E-1,2.6237292E-2,2.8775528E-1,-1.2489712E-2,-1.9517481E-2,2.1357577E-2,-1.527291E-2,-7.5546806E-3,2.5627835E-2,-1.2637344E-2,-1.8277293E-2,-9.834767E-3,2.6126659E-2,-1.2174276E-2,-4.2585754E-3,-6.085137E-3,8.281357E-3],"categories":[],"categories_nodes":[],"categories_segments":[],"categories_sizes":[],"default_left":[0,0,0,0,0,0,0,0,0,0,0,0,0,0,0,0,0,0,0,0,0,0,0,0,0,0,0,0,0],"id":4,"left_children":[1,3,5,7,9,11,13,15,17,19,21,23,25,-1,27,-1,-1,-1,-1,-1,-1,-1,-1,-1,-1,-1,-1,-1,-1],"loss_changes":[8.941383E2,1.377392E2,5.594057E2,1.0750977E1,1.2741391E2,1.7391855E2,8.745213E2,1.0018311E1,7.671753E1,5.02085E2,7.0985413E0,1.00184924E3,6.2804153E1,0E0,4.5659497E2,0E0,0E0,0E0,0E0,0E0,0E0,0E0,0E0,0E0,0E0,0E0,0E0,0E0,0E0],"parents":[2147483647,0,0,1,1,2,2,3,3,4,4,5,5,6,6,7,7,8,8,9,9,10,10,11,11,12,12,14,14],"right_children":[2,4,6,8,10,12,14,16,18,20,22,24,26,-1,28,-1,-1,-1,-1,-1,-1,-1,-1,-1,-1,-1,-1,-1,-1],"split_conditions":[9.956436E-1,5.888296E-1,2.517853E-1,1.0290078E0,5E-1,1E0,5E-1,1E0,2E0,4.3320274E-1,4.8290792E-1,1.8856222E-2,3.7415389E-3,2.6237292E-2,5.109509E-1,-1.2489712E-2,-1.9517481E-2,2.1357577E-2,-1.527291E-2,-7.5546806E-3,2.5627835E-2,-1.2637344E-2,-1.8277293E-2,-9.834767E-3,2.6126659E-2,-1.2174276E-2,-4.2585754E-3,-6.085137E-3,8.281357E-3],"split_indices":[89,89,61,62,59,62,61,62,62,59,20,64,66,0,61,0,0,0,0,0,0,0,0,0,0,0,0,0,0],"split_type":[0,0,0,0,0,0,0,0,0,0,0,0,0,0,0,0,0,0,0,0,0,0,0,0,0,0,0,0,0],"sum_hessian":[5.1277456E3,1.4681659E3,3.6595798E3,3.7624408E2,1.0919218E3,1.3937106E3,2.2658691E3,2.557961E2,1.20448E2,8.2880286E2,2.63119E2,6.321976E2,7.61513E2,3.8043127E2,1.8854379E3,7.268432E1,1.8311177E2,9.492722E0,1.1095528E2,7.376674E2,9.113542E1,1.7816783E2,8.495115E1,4.243632E2,2.0783438E2,3.106669E2,4.5084607E2,5.773339E2,1.3081039E3],"tree_param":{"num_deleted":"0","num_feature":"104","num_nodes":"29","size_leaf_vector":"1"}},{"base_weights":[-1.7380577E-2,-6.1545956E-1,2.7727464E-1,-9.833945E-1,-3.488814E-1,-2.3217706E-1,5.940258E-1,-7.0382714E-1,-1.1892235E0,2.6004188E-2,-6.151515E-1,1.8549605E-1,-5.9234524E-1,2.5874926E-2,3.1896427E-1,-1.6738808E-2,2.5575494E-2,-1.8973848E-2,-1.2671787E-2,-1.5309362E-2,-3.9679175E-3,-9.1060735E-3,2.5795877E-2,-1.2043648E-2,-5.2474528E-3,-6.036094E-3,8.9317765E-3],"categories":[],"categories_nodes":[],"categories_segments":[],"categories_sizes":[],"default_left":[0,0,0,0,0,0,0,0,0,0,0,0,0,0,0,0,0,0,0,0,0,0,0,0,0,0,0],"id":5,"left_children":[1,3,5,7,9,11,13,15,17,-1,19,21,23,-1,25,-1,-1,-1,-1,-1,-1,-1,-1,-1,-1,-1,-1],"loss_changes":[9.0400134E2,1.6491064E2,5.5486426E2,3.8434814E1,6.0007446E2,1.9869656E2,7.71036E2,4.344052E2,1.8462036E1,0E0,1.4653009E2,9.136919E2,4.2189346E1,0E0,4.6424646E2,0E0,0E0,0E0,0E0,0E0,0E0,0E0,0E0,0E0,0E0,0E0,0E0],"parents":[2147483647,0,0,1,1,2,2,3,3,4,4,5,5,6,6,7,7,8,8,10,10,11,11,12,12,14,14],"right_children":[2,4,6,8,10,12,14,16,18,-1,20,22,24,-1,26,-1,-1,-1,-1,-1,-1,-1,-1,-1,-1,-1,-1],"split_conditions":[1.058895E0,2.517853E-1,2.517853E-1,2.5E-1,5E-1,4.330127E-1,5E-1,1.8856222E-2,7.811656E-1,2.6004188E-2,5.109509E-1,1.5141594E-2,5.6869173E-3,2.5874926E-2,5.109509E-1,-1.6738808E-2,2.5575494E-2,-1.8973848E-2,-1.2671787E-2,-1.5309362E-2,-3.9679175E-3,-9.1060735E-3,2.5795877E-2,-1.2043648E-2,-5.2474528E-3,-6.036094E-3,8.9317765E-3],"split_indices":[89,61,61,61,61,64,61,64,89,0,61,61,69,0,61,0,0,0,0,0,0,0,0,0,0,0,0],"split_type":[0,0,0,0,0,0,0,0,0,0,0,0,0,0,0,0,0,0,0,0,0,0,0,0,0,0,0],"sum_hessian":[5.1249443E3,1.6911477E3,3.4337966E3,7.0758453E2,9.835632E2,1.3162686E3,2.1175278E3,3.0470206E2,4.028825E2,1.0140073E2,8.821625E2,6.0952625E2,7.067423E2,3.6141483E2,1.7561132E3,2.534926E2,5.1209454E1,2.0851385E2,1.9436865E2,3.3374567E2,5.484168E2,4.0757306E2,2.0195319E2,2.8089035E2,4.2585196E2,5.430961E2,1.213017E3],"tree_param":{"num_deleted":"0","num_feature":"104","num_nodes":"27","size_leaf_vector":"1"}},{"base_weights":[6.090366E-3,-6.916031E-1,2.7502787E-1,-1.0745889E0,-4.5825776E-1,4.8790103E-1,-3.8657787E-1,-1.3556893E0,-9.0543103E-1,-9.232948E-1,-2.366844E-1,1.6619223E-1,2.555149E-2,-8.4857774E-1,-1.8247789E-1,-1.900232E-2,-6.1542885E-3,2.4442319E-2,-1.589719E-2,-1.43234255E-2,-6.105046E-3,-1.1455153E-2,-1.9131416E-4,9.7404495E-3,-2.54105E-3,-9.12601E-3,-1.6307367E-2,-7.229201E-3,2.0669762E-4],"categories":[],"categories_nodes":[],"categories_segments":[],"categories_sizes":[],"default_left":[0,0,0,0,0,0,0,0,0,0,0,0,0,0,0,0,0,0,0,0,0,0,0,0,0,0,0,0,0],"id":6,"left_children":[1,3,5,7,9,11,13,15,17,19,21,23,-1,25,27,-1,-1,-1,-1,-1,-1,-1,-1,-1,-1,-1,-1,-1,-1],"loss_changes":[9.523076E2,1.2462677E2,5.164757E2,2.196466E1,8.999008E1,1.2550046E3,8.3508835E1,7.540863E0,2.5744772E2,1.7065048E1,8.161917E1,4.4671747E2,0E0,1.4516861E1,4.376895E1,0E0,0E0,0E0,0E0,0E0,0E0,0E0,0E0,0E0,0E0,0E0,0E0,0E0,0E0],"parents":[2147483647,0,0,1,1,2,2,3,3,4,4,5,5,6,6,7,7,8,8,9,9,10,10,11,11,13,13,14,14],"right_children":[2,4,6,8,10,12,14,16,18,20,22,24,-1,26,28,-1,-1,-1,-1,-1,-1,-1,-1,-1,-1,-1,-1,-1,-1],"split_conditions":[9.062485E-1,7.783841E-1,5E-1,1.8856222E-2,-5.9955883E-1,4.3320274E-1,1.1845706E0,2.8739402E-3,4.330127E-1,5.634333E-1,6.422E-2,4.330127E-1,2.555149E-2,1.4088907E0,1.3329016E0,-1.900232E-2,-6.1542885E-3,2.4442319E-2,-1.589719E-2,-1.43234255E-2,-6.105046E-3,-1.1455153E-2,-1.9131416E-4,9.7404495E-3,-2.54105E-3,-9.12601E-3,-1.6307367E-2,-7.229201E-3,2.0669762E-4],"split_indices":[103,103,59,64,48,59,92,73,64,3,32,59,0,93,31,0,0,0,0,0,0,0,0,0,0,0,0,0,0],"split_type":[0,0,0,0,0,0,0,0,0,0,0,0,0,0,0,0,0,0,0,0,0,0,0,0,0,0,0,0,0],"sum_hessian":[5.0717695E3,1.4098043E3,3.661965E3,5.303259E2,8.794784E2,2.77134E3,8.9062506E2,1.9291727E2,3.3740863E2,2.8116315E2,5.9831525E2,2.258044E3,5.132961E2,2.7034735E2,6.202777E2,1.8043797E2,1.2479306E1,2.9705587E1,3.0770306E2,2.1422267E2,6.694048E1,1.5728032E2,4.4103494E2,8.7848804E2,1.3795559E3,1.8814136E2,8.2206E1,2.2168329E2,3.9859442E2],"tree_param":{"num_deleted":"0","num_feature":"104","num_nodes":"29","size_leaf_vector":"1"}},{"base_weights":[-4.796575E-3,-4.5557362E-1,3.5365197E-1,-8.854782E-1,-1.5602188E-1,5.680587E-1,-3.2955807E-1,-5.4537874E-1,-1.1418399E0,2.5681023E-2,-4.1847268E-1,2.4559462E-1,2.527178E-2,-4.4964734E-2,-6.0800505E-1,-1.6372506E-2,2.543923E-2,-1.7320167E-2,-1.0735704E-2,-1.3046642E-2,-1.2621725E-3,1.0882798E-2,-1.3899395E-3,-7.086366E-3,2.5277719E-2,-1.4740598E-2,-5.6721023E-3],"categories":[],"categories_nodes":[],"categories_segments":[],"categories_sizes":[],"default_left":[0,0,0,0,0,0,0,0,0,0,0,0,0,0,0,0,0,0,0,0,0,0,0,0,0,0,0],"id":7,"left_children":[1,3,5,7,9,11,13,15,17,-1,19,21,-1,23,25,-1,-1,-1,-1,-1,-1,-1,-1,-1,-1,-1,-1],"loss_changes":[8.314462E2,2.9292624E2,4.20286E2,7.965875E1,7.297591E2,9.18273E2,5.4048126E1,6.6691077E2,2.3406128E1,0E0,2.1303206E2,3.439917E2,0E0,3.174035E2,2.9948227E1,0E0,0E0,0E0,0E0,0E0,0E0,0E0,0E0,0E0,0E0,0E0,0E0],"parents":[2147483647,0,0,1,1,2,2,3,3,4,4,5,5,6,6,7,7,8,8,10,10,11,11,13,13,14,14],"right_children":[2,4,6,8,10,12,14,16,18,-1,20,22,-1,24,26,-1,-1,-1,-1,-1,-1,-1,-1,-1,-1,-1,-1],"split_conditions":[1.2242442E0,2.517853E-1,5E-1,2.5E-1,5E-1,4.3320274E-1,1E0,1.5141594E-2,1.3772187E0,2.5681023E-2,5.109509E-1,4.330127E-1,2.527178E-2,3.7415389E-3,6.756085E-1,-1.6372506E-2,2.543923E-2,-1.7320167E-2,-1.0735704E-2,-1.3046642E-2,-1.2621725E-3,1.0882798E-2,-1.3899395E-3,-7.086366E-3,2.5277719E-2,-1.4740598E-2,-5.6721023E-3],"split_indices":[89,61,59,61,61,59,67,61,24,0,61,59,0,66,93,0,0,0,0,0,0,0,0,0,0,0,0],"split_type":[0,0,0,0,0,0,0,0,0,0,0,0,0,0,0,0,0,0,0,0,0,0,0,0,0,0,0],"sum_hessian":[5.141274E3,2.277498E3,2.8637756E3,9.33098E2,1.3444E3,2.1803708E3,6.834049E2,4.0445526E2,5.2864276E2,1.5017848E2,1.1942216E3,1.751153E3,4.292178E2,3.397808E2,3.436241E2,3.1811594E2,8.633933E1,3.6877008E2,1.5987265E2,4.416626E2,7.5255896E2,6.698857E2,1.0812673E3,2.7311395E2,6.666685E1,9.2205284E1,2.5141884E2],"tree_param":{"num_deleted":"0","num_feature":"104","num_nodes":"27","size_leaf_vector":"1"}},{"base_weights":[4.1032494E-3,-6.4642125E-1,2.8530964E-1,-1.0212413E0,-4.0743804E-1,4.8530912E-1,-3.598237E-1,-1.1416501E0,-5.992394E-1,2.5426693E-2,-8.4658194E-1,1.6436966E-1,2.4998844E-2,-9.875024E-1,-2.3459448E-1,-1.6156953E-2,-7.389887E-3,-4.1748337E-3,-1.48038985E-2,-1.7003175E-2,-8.889741E-3,9.31721E-3,-2.3303307E-3,7.9392677E-4,-1.4016758E-2,3.1932394E-4,-6.7018173E-3],"categories":[],"categories_nodes":[],"categories_segments":[],"categories_sizes":[],"default_left":[0,0,0,0,0,0,0,0,0,0,0,0,0,0,0,0,0,0,0,0,0,0,0,0,0,0,0],"id":8,"left_children":[1,3,5,7,9,11,13,15,17,-1,19,21,-1,23,25,-1,-1,-1,-1,-1,-1,-1,-1,-1,-1,-1,-1],"loss_changes":[9.328378E2,1.3648987E2,4.5989093E2,2.8317078E1,9.538788E2,1.1942053E3,6.540878E1,1.37039795E1,1.870134E1,0E0,5.9190247E1,3.925205E2,0E0,8.115555E0,4.811832E1,0E0,0E0,0E0,0E0,0E0,0E0,0E0,0E0,0E0,0E0,0E0,0E0],"parents":[2147483647,0,0,1,1,2,2,3,3,4,4,5,5,6,6,7,7,8,8,10,10,11,11,13,13,14,14],"right_children":[2,4,6,8,10,12,14,16,18,-1,20,22,-1,24,26,-1,-1,-1,-1,-1,-1,-1,-1,-1,-1,-1,-1],"split_conditions":[9.2025596E-1,5.6869173E-3,5E-1,1.5334931E-1,1E0,4.3320274E-1,9.516592E-1,2.1243453E-1,9.7849715E-1,2.5426693E-2,7.4353105E-1,4.330127E-1,2.4998844E-2,4.1783246E-1,9.907577E-1,-1.6156953E-2,-7.389887E-3,-4.1748337E-3,-1.48038985E-2,-1.7003175E-2,-8.889741E-3,9.31721E-3,-2.3303307E-3,7.9392677E-4,-1.4016758E-2,3.1932394E-4,-6.7018173E-3],"split_indices":[103,69,59,32,67,59,92,26,32,0,92,59,0,27,67,0,0,0,0,0,0,0,0,0,0,0,0],"split_type":[0,0,0,0,0,0,0,0,0,0,0,0,0,0,0,0,0,0,0,0,0,0,0,0,0,0,0],"sum_hessian":[5.095784E3,1.5367744E3,3.5590098E3,5.950984E2,9.4167596E2,2.7175698E3,8.4143976E2,4.5956918E2,1.355292E2,1.5004968E2,7.9162634E2,2.203795E3,5.13775E2,1.370863E2,7.0435345E2,4.166497E2,4.2919495E1,8.838482E1,4.7144382E1,2.4147481E2,5.501515E2,8.595536E2,1.3442413E3,6.242958E0,1.3084334E2,3.5548874E2,3.488647E2],"tree_param":{"num_deleted":"0","num_feature":"104","num_nodes":"27","size_leaf_vector":"1"}},{"base_weights":[-6.068503E-4,-6.260732E-1,2.5261125E-1,-9.835892E-1,-3.8217953E-1,-2.2341381E-1,5.462374E-1,-7.8504467E-1,-1.252966E0,2.5353044E-2,-8.1407857E-1,1.3361281E-1,-5.293735E-1,2.5173208E-2,2.8109324E-1,-1.3747282E-2,2.461149E-2,-1.7191656E-2,-1.282518E-4,-1.7138869E-2,-8.115521E-3,-9.60512E-3,2.5107268E-2,-9.851711E-3,-2.3823055E-3,-5.77529E-3,7.994416E-3],"categories":[],"categories_nodes":[],"categories_segments":[],"categories_sizes":[],"default_left":[0,0,0,0,0,0,0,0,0,0,0,0,0,0,0,0,0,0,0,0,0,0,0,0,0,0,0],"id":9,"left_children":[1,3,5,7,9,11,13,15,17,-1,19,21,23,-1,25,-1,-1,-1,-1,-1,-1,-1,-1,-1,-1,-1,-1],"loss_changes":[8.1194556E2,1.275827E2,5.1029822E2,2.9182556E1,8.654561E2,1.5243707E2,7.892764E2,2.1863596E2,6.5790405E0,0E0,6.976297E1,9.4579346E2,5.2823044E1,0E0,4.176491E2,0E0,0E0,0E0,0E0,0E0,0E0,0E0,0E0,0E0,0E0,0E0,0E0],"parents":[2147483647,0,0,1,1,2,2,3,3,4,4,5,5,6,6,7,7,8,8,10,10,11,11,12,12,14,14],"right_children":[2,4,6,8,10,12,14,16,18,-1,20,22,24,-1,26,-1,-1,-1,-1,-1,-1,-1,-1,-1,-1,-1,-1],"split_conditions":[9.956436E-1,5.6869173E-3,2.517853E-1,0E0,4.330127E-1,1E0,5E-1,-2.4888732E-1,4.75E0,2.5353044E-2,5.967887E-2,1.8856222E-2,2.4000001E-1,2.5173208E-2,5.109509E-1,-1.3747282E-2,2.461149E-2,-1.7191656E-2,-1.282518E-4,-1.7138869E-2,-8.115521E-3,-9.60512E-3,2.5107268E-2,-9.851711E-3,-2.3823055E-3,-5.77529E-3,7.994416E-3],"split_indices":[89,69,61,70,69,62,61,70,51,0,26,64,26,0,61,0,0,0,0,0,0,0,0,0,0,0,0],"split_type":[0,0,0,0,0,0,0,0,0,0,0,0,0,0,0,0,0,0,0,0,0,0,0,0,0,0,0],"sum_hessian":[5.1215664E3,1.4754069E3,3.6461597E3,5.9517255E2,8.802343E2,1.39079E3,2.2553696E3,3.4811856E2,2.4705399E2,1.3978546E2,7.4044885E2,6.418796E2,7.4891046E2,3.7450287E2,1.8808668E3,3.2067316E2,2.7445406E1,2.423076E2,4.7463884E0,2.304699E2,5.0997894E2,4.316779E2,2.1020172E2,4.7439145E2,2.74519E2,5.739808E2,1.3068861E3],"tree_param":{"num_deleted":"0","num_feature":"104","num_nodes":"27","size_leaf_vector":"1"}},{"base_weights":[5.3036436E-3,-5.9447867E-1,2.8451002E-1,-9.7288746E-1,-3.474595E-1,-2.055142E-1,5.9170383E-1,-7.788654E-1,-1.243156E0,2.5112446E-2,-7.794433E-1,1.6952027E-1,-5.1952124E-1,2.4878802E-2,3.2890716E-1,-1.3797505E-2,2.4431726E-2,-1.7398642E-2,-4.7021406E-3,-1.5607051E-2,-7.700355E-3,-8.998334E-3,2.4817983E-2,-1.3189242E-2,-4.9630315E-3,-5.3245137E-3,8.8438345E-3],"categories":[],"categories_nodes":[],"categories_segments":[],"categories_sizes":[],"default_left":[0,0,0,0,0,0,0,0,0,0,0,0,0,0,0,0,0,0,0,0,0,0,0,0,0,0,0],"id":10,"left_children":[1,3,5,7,9,11,13,15,17,-1,19,21,23,-1,25,-1,-1,-1,-1,-1,-1,-1,-1,-1,-1,-1,-1],"loss_changes":[8.5443787E2,1.5032141E2,5.245877E2,3.0748413E1,9.4278973E2,1.5845984E2,7.038989E2,2.436184E2,9.735321E0,0E0,6.301773E1,8.613094E2,4.962213E1,0E0,4.20883E2,0E0,0E0,0E0,0E0,0E0,0E0,0E0,0E0,0E0,0E0,0E0,0E0],"parents":[2147483647,0,0,1,1,2,2,3,3,4,4,5,5,6,6,7,7,8,8,10,10,11,11,12,12,14,14],"right_children":[2,4,6,8,10,12,14,16,18,-1,20,22,24,-1,26,-1,-1,-1,-1,-1,-1,-1,-1,-1,-1,-1,-1],"split_conditions":[1.0414894E0,5.6869173E-3,2.517853E-1,0E0,4.330127E-1,4.330127E-1,5E-1,-2.4888732E-1,1.3579706E0,2.5112446E-2,6.759135E-1,1.8856222E-2,1.3780558E0,2.4878802E-2,5.109509E-1,-1.3797505E-2,2.4431726E-2,-1.7398642E-2,-4.7021406E-3,-1.5607051E-2,-7.700355E-3,-8.998334E-3,2.4817983E-2,-1.3189242E-2,-4.9630315E-3,-5.3245137E-3,8.8438345E-3],"split_indices":[92,69,61,70,69,64,61,70,27,0,92,64,25,0,61,0,0,0,0,0,0,0,0,0,0,0,0],"split_type":[0,0,0,0,0,0,0,0,0,0,0,0,0,0,0,0,0,0,0,0,0,0,0,0,0,0,0],"sum_hessian":[5.0986074E3,1.6184084E3,3.4801987E3,6.36216E2,9.8219244E2,1.3408849E3,2.139314E3,3.7585165E2,2.6036435E2,1.5926973E2,8.229227E2,6.1102264E2,7.298622E2,3.6813272E2,1.7711813E3,3.4468552E2,3.1166113E1,2.4588951E2,1.4474846E1,2.8783032E2,5.350924E2,4.0786835E2,2.0315431E2,1.7743413E2,5.5242804E2,5.5099927E2,1.220182E3],"tree_param":{"num_deleted":"0","num_feature":"104","num_nodes":"27","size_leaf_vector":"1"}},{"base_weights":[8.676982E-3,-6.093413E-1,2.7388474E-1,-1.0750657E0,-4.347951E-1,-1.7306118E-1,5.49502E-1,-1.2159303E0,-8.09096E-1,-8.424884E-1,-1.7808631E-1,-5.780222E-1,5.806152E-2,2.5146924E-2,-5.382614E-2,5.1758434E-3,-1.6545543E-2,2.1144718E-2,-1.4679754E-2,-5.671842E-3,-1.2815211E-2,2.4653113E-2,-8.291182E-3,-1.2661363E-2,-4.6856324E-3,2.496587E-2,-5.253959E-3,-3.4553949E-3,6.5140855E-3],"categories":[],"categories_nodes":[],"categories_segments":[],"categories_sizes":[],"default_left":[0,0,0,0,0,0,0,0,0,0,0,0,0,0,0,0,0,0,0,0,0,0,0,0,0,0,0,0,0],"id":11,"left_children":[1,3,5,7,9,11,13,15,17,19,21,23,25,-1,27,-1,-1,-1,-1,-1,-1,-1,-1,-1,-1,-1,-1,-1,-1],"loss_changes":[8.386433E2,1.2338806E2,4.4146896E2,1.2858704E1,1.1671802E2,1.2820277E2,1.7609644E3,6.326538E0,1.0438834E2,1.8457184E1,6.0867645E2,4.0300003E1,7.027398E2,0E0,1.657592E2,0E0,0E0,0E0,0E0,0E0,0E0,0E0,0E0,0E0,0E0,0E0,0E0,0E0,0E0],"parents":[2147483647,0,0,1,1,2,2,3,3,4,4,5,5,6,6,7,7,8,8,9,9,10,10,11,11,12,12,14,14],"right_children":[2,4,6,8,10,12,14,16,18,20,22,24,26,-1,28,-1,-1,-1,-1,-1,-1,-1,-1,-1,-1,-1,-1,-1,-1],"split_conditions":[9.2025596E-1,7.5424975E-1,1.4595216E-2,1.6407366E-3,5.6869173E-3,1.31221255E-2,1E0,6.6093635E-3,1E0,9.682983E-1,1E0,1.2294272E0,1E0,2.5146924E-2,1.0401678E0,5.1758434E-3,-1.6545543E-2,2.1144718E-2,-1.4679754E-2,-5.671842E-3,-1.2815211E-2,2.4653113E-2,-8.291182E-3,-1.2661363E-2,-4.6856324E-3,2.496587E-2,-5.253959E-3,-3.4553949E-3,6.5140855E-3],"split_indices":[103,103,53,98,69,67,53,78,67,57,67,89,67,0,53,0,0,0,0,0,0,0,0,0,0,0,0,0,0],"split_type":[0,0,0,0,0,0,0,0,0,0,0,0,0,0,0,0,0,0,0,0,0,0,0,0,0,0,0,0,0],"sum_hessian":[5.113105E3,1.5341179E3,3.5789868E3,4.1472153E2,1.1193964E3,1.3650219E3,2.213965E3,2.653616E2,1.4935992E2,4.3013858E2,6.892578E2,4.953533E2,8.696686E2,6.9455725E2,1.5194077E3,1.2455244E0,2.641161E2,1.4590268E1,1.3476965E2,9.07372E1,3.3940137E2,1.21912346E2,5.6734546E2,1.8969017E2,3.0566312E2,1.7253896E2,6.971296E2,1.1045939E3,4.1481384E2],"tree_param":{"num_deleted":"0","num_feature":"104","num_nodes":"29","size_leaf_vector":"1"}},{"base_weights":[-5.9355283E-3,-5.073876E-1,3.3816996E-1,-8.19082E-1,-1.683611E-1,-1.367384E-1,5.8579546E-1,-9.931576E-1,-4.3186113E-1,2.44076E-2,-6.118029E-1,-5.640039E-1,6.136008E-2,2.4888638E-2,-1.869919E-2,-1.4574872E-2,-7.657272E-3,-1.0383221E-2,-2.0242122E-3,2.4017757E-2,-1.0853171E-2,-1.4230548E-2,-4.9253576E-3,2.2177733E-3,-9.013836E-3,2.1268683E-3,-7.346658E-3],"categories":[],"categories_nodes":[],"categories_segments":[],"categories_sizes":[],"default_left":[0,0,0,0,0,0,0,0,0,0,0,0,0,0,0,0,0,0,0,0,0,0,0,0,0,0,0],"id":12,"left_children":[1,3,5,7,9,11,13,15,17,-1,19,21,23,-1,25,-1,-1,-1,-1,-1,-1,-1,-1,-1,-1,-1,-1],"loss_changes":[8.8077E2,2.1891443E2,3.5623877E2,7.150403E1,8.782347E2,8.814068E1,1.5177192E3,2.606903E1,3.1844646E1,0E0,3.8138284E2,3.091005E1,5.3640106E1,0E0,1.2550066E2,0E0,0E0,0E0,0E0,0E0,0E0,0E0,0E0,0E0,0E0,0E0,0E0],"parents":[2147483647,0,0,1,1,2,2,3,3,4,4,5,5,6,6,7,7,8,8,10,10,11,11,12,12,14,14],"right_children":[2,4,6,8,10,12,14,16,18,-1,20,22,24,-1,26,-1,-1,-1,-1,-1,-1,-1,-1,-1,-1,-1,-1],"split_conditions":[9.780576E-1,1.6407366E-3,5.6869173E-3,1.2639983E0,1E0,1.2187365E0,1E0,1.880356E-1,1.3780558E0,2.44076E-2,4.330127E-1,-2.0269477E-1,7.5E-1,2.4888638E-2,5E-1,-1.4574872E-2,-7.657272E-3,-1.0383221E-2,-2.0242122E-3,2.4017757E-2,-1.0853171E-2,-1.4230548E-2,-4.9253576E-3,2.2177733E-3,-9.013836E-3,2.1268683E-3,-7.346658E-3],"split_indices":[103,98,69,89,67,89,67,26,25,0,64,7,56,0,59,0,0,0,0,0,0,0,0,0,0,0,0],"split_type":[0,0,0,0,0,0,0,0,0,0,0,0,0,0,0,0,0,0,0,0,0,0,0,0,0,0,0],"sum_hessian":[5.0998115E3,2.075389E3,3.0244229E3,1.0792057E3,9.961831E2,1.0363885E3,1.9880343E3,7.416302E2,3.3757556E2,1.8098866E2,8.1519446E2,3.2759384E2,7.087947E2,6.429684E2,1.3450659E3,6.1064264E2,1.3098756E2,1.5108617E2,1.864894E2,5.9542652E1,7.556518E2,9.10798E1,2.3651402E2,6.228596E2,8.593504E1,1.00794666E3,3.3711923E2],"tree_param":{"num_deleted":"0","num_feature":"104","num_nodes":"27","size_leaf_vector":"1"}},{"base_weights":[6.116223E-3,-5.809845E-1,2.535516E-1,-1.1851435E0,-4.3120152E-1,-2.0503633E-1,5.3516465E-1,-1.2126361E0,-2.1524832E-2,-8.3135134E-1,-1.7323117E-1,1.5544413E-1,-5.029061E-1,2.4385624E-2,2.6911655E-1,-1.977531E-2,-1.4474435E-2,7.426512E-3,-8.344204E-3,-1.30121615E-2,-7.826385E-4,2.4331044E-2,-8.385286E-3,-8.636409E-3,2.431498E-2,-1.3647766E-2,-5.135611E-3,-6.089948E-3,7.89026E-3],"categories":[],"categories_nodes":[],"categories_segments":[],"categories_sizes":[],"default_left":[0,0,0,0,0,0,0,0,0,0,0,0,0,0,0,0,0,0,0,0,0,0,0,0,0,0,0,0,0],"id":13,"left_children":[1,3,5,7,9,11,13,15,17,19,21,23,25,-1,27,-1,-1,-1,-1,-1,-1,-1,-1,-1,-1,-1,-1,-1,-1],"loss_changes":[7.3902496E2,1.348581E2,4.6265515E2,9.065674E0,1.245045E2,1.4663928E2,7.505438E2,6.081299E0,3.9324315E0,4.8738342E1,6.596484E2,8.139761E2,4.5134125E1,0E0,4.199311E2,0E0,0E0,0E0,0E0,0E0,0E0,0E0,0E0,0E0,0E0,0E0,0E0,0E0,0E0],"parents":[2147483647,0,0,1,1,2,2,3,3,4,4,5,5,6,6,7,7,8,8,9,9,10,10,11,11,12,12,14,14],"right_children":[2,4,6,8,10,12,14,16,18,20,22,24,26,-1,28,-1,-1,-1,-1,-1,-1,-1,-1,-1,-1,-1,-1,-1,-1],"split_conditions":[1.007081E0,5.4001313E-1,2.517853E-1,3.0409226E-1,5.6869173E-3,2.5E-1,5E-1,4.9170023E-1,-2.7960896E-2,2.066797E0,4.330127E-1,1.5141594E-2,1.3023E0,2.4385624E-2,5.109509E-1,-1.977531E-2,-1.4474435E-2,7.426512E-3,-8.344204E-3,-1.30121615E-2,-7.826385E-4,2.4331044E-2,-8.385286E-3,-8.636409E-3,2.431498E-2,-1.3647766E-2,-5.135611E-3,-6.089948E-3,7.89026E-3],"split_indices":[89,89,61,75,69,61,61,93,50,62,69,61,25,0,61,0,0,0,0,0,0,0,0,0,0,0,0,0,0],"split_type":[0,0,0,0,0,0,0,0,0,0,0,0,0,0,0,0,0,0,0,0,0,0,0,0,0,0,0,0,0],"sum_hessian":[5.083756E3,1.5060598E3,3.5776958E3,2.9585306E2,1.2102068E3,1.3609207E3,2.2167751E3,2.8865732E2,7.195731E0,4.7202597E2,7.381808E2,6.156987E2,7.4522186E2,3.8053867E2,1.8362366E3,9.370807E1,1.9494925E2,3.4743207E0,3.7214108E0,4.014122E2,7.061379E1,1.3520207E2,6.029787E2,4.1592105E2,1.9977773E2,1.4022662E2,6.0499524E2,5.593906E2,1.2768458E3],"tree_param":{"num_deleted":"0","num_feature":"104","num_nodes":"29","size_leaf_vector":"1"}},{"base_weights":[-2.7363636E-3,-5.062474E-1,2.7953058E-1,-8.320677E-1,-1.9187102E-1,-4.6550065E-1,4.5474717E-1,-6.2659603E-1,-1.0495738E0,1.7647209E0,-6.104749E-1,-6.5280825E-1,-1.3806106E-2,4.090757E-2,7.5698113E-1,-1.2630859E-2,2.4834773E-2,-1.4359738E-2,2.405906E-3,2.4072474E-2,-2.1405465E-3,2.1864926E-2,-9.837232E-3,-1.28296E-2,-4.907417E-3,2.2452574E-3,-7.4825124E-3,-7.4728755E-3,3.3078222E-3,2.4439882E-2,3.3131558E-3],"categories":[],"categories_nodes":[],"categories_segments":[],"categories_sizes":[],"default_left":[0,0,0,0,0,0,0,0,0,0,0,0,0,0,0,0,0,0,0,0,0,0,0,0,0,0,0,0,0,0,0],"id":14,"left_children":[1,3,5,7,9,11,13,15,17,19,21,23,25,27,29,-1,-1,-1,-1,-1,-1,-1,-1,-1,-1,-1,-1,-1,-1,-1,-1],"loss_changes":[7.248405E2,1.8699976E2,4.2695776E2,3.820813E1,7.6833636E2,5.244902E1,3.306952E2,3.624613E2,9.175568E0,7.9868164E0,2.0831271E2,3.6797287E1,1.8418715E1,1.3655695E2,8.2404767E2,0E0,0E0,0E0,0E0,0E0,0E0,0E0,0E0,0E0,0E0,0E0,0E0,0E0,0E0,0E0,0E0],"parents":[2147483647,0,0,1,1,2,2,3,3,4,4,5,5,6,6,7,7,8,8,9,9,10,10,11,11,12,12,13,13,14,14],"right_children":[2,4,6,8,10,12,14,16,18,20,22,24,26,28,30,-1,-1,-1,-1,-1,-1,-1,-1,-1,-1,-1,-1,-1,-1,-1,-1],"split_conditions":[1.100004E0,1.6407366E-3,1.3493397E0,0E0,4.330127E-1,1.7958796E0,1.6407366E-3,-2.4888732E-1,2.1214966E5,6.6387373E-1,4.279415E-1,1.6407366E-3,1.3243346E-2,1.8856222E-2,4.330127E-1,-1.2630859E-2,2.4834773E-2,-1.4359738E-2,2.405906E-3,2.4072474E-2,-2.1405465E-3,2.1864926E-2,-9.837232E-3,-1.28296E-2,-4.907417E-3,2.2452574E-3,-7.4825124E-3,-7.4728755E-3,3.3078222E-3,2.4439882E-2,3.3131558E-3],"split_indices":[89,98,25,70,69,89,98,70,0,66,64,98,9,64,69,0,0,0,0,0,0,0,0,0,0,0,0,0,0,0,0],"split_type":[0,0,0,0,0,0,0,0,0,0,0,0,0,0,0,0,0,0,0,0,0,0,0,0,0,0,0,0,0,0,0],"sum_hessian":[5.09528E3,1.8301454E3,3.2651343E3,8.96482E2,9.3366345E2,6.206563E2,2.644478E3,4.6600858E2,4.304734E2,1.63208E2,7.7045544E2,4.3753818E2,1.8311813E2,1.1176382E3,1.52684E3,4.1522318E2,5.078541E1,4.2549677E2,4.976615E0,1.6172318E2,1.4848078E0,3.7635284E1,7.328202E2,2.1189848E2,2.256397E2,1.3798831E2,4.5129818E1,2.8442676E2,8.3321136E2,4.9585526E2,1.0309846E3],"tree_param":{"num_deleted":"0","num_feature":"104","num_nodes":"31","size_leaf_vector":"1"}},{"base_weights":[-9.869502E-3,-6.083388E-1,2.1471137E-1,-1.1071187E0,-4.6246588E-1,-1.7712395E-1,5.237128E-1,-8.7429255E-1,-1.301341E0,-2.9031596E-1,-9.8856694E-1,-6.8449825E-1,9.563985E-3,2.4197455E-2,-1.1908648E-2,-1.5048699E-2,2.076169E-2,-0E0,-1.8010452E-2,-7.3401234E-3,2.452194E-2,-1.45425E-2,-7.1189418E-3,-1.262612E-2,-4.0767053E-3,2.4046507E-2,-2.889366E-3,2.1890488E-2,-1.8811172E-3],"categories":[],"categories_nodes":[],"categories_segments":[],"categories_sizes":[],"default_left":[0,0,0,0,0,0,0,0,0,0,0,0,0,0,0,0,0,0,0,0,0,0,0,0,0,0,0,0,0],"id":15,"left_children":[1,3,5,7,9,11,13,15,17,19,21,23,25,-1,27,-1,-1,-1,-1,-1,-1,-1,-1,-1,-1,-1,-1,-1,-1],"loss_changes":[6.899118E2,1.0031E2,4.521023E2,1.1106445E1,9.749994E1,1.561773E2,1.4224685E3,9.1564415E1,7.891205E0,4.4343176E2,9.377686E0,4.1729355E1,4.803286E2,0E0,3.0720578E2,0E0,0E0,0E0,0E0,0E0,0E0,0E0,0E0,0E0,0E0,0E0,0E0,0E0,0E0],"parents":[2147483647,0,0,1,1,2,2,3,3,4,4,5,5,6,6,7,7,8,8,9,9,10,10,11,11,12,12,14,14],"right_children":[2,4,6,8,10,12,14,16,18,20,22,24,26,-1,28,-1,-1,-1,-1,-1,-1,-1,-1,-1,-1,-1,-1,-1,-1],"split_conditions":[9.6997017E-1,5.521165E-1,1.6407366E-3,4.330127E-1,5E-1,1.8856222E-2,4.330127E-1,5.6869173E-3,1.0969578E0,4.3320274E-1,2.3182635E-1,1.670285E0,4.330127E-1,2.4197455E-2,4.330127E-1,-1.5048699E-2,2.076169E-2,-0E0,-1.8010452E-2,-7.3401234E-3,2.452194E-2,-1.45425E-2,-7.1189418E-3,-1.262612E-2,-4.0767053E-3,2.4046507E-2,-2.889366E-3,2.1890488E-2,-1.8811172E-3],"split_indices":[89,89,98,69,59,64,69,69,36,59,26,89,64,0,64,0,0,0,0,0,0,0,0,0,0,0,0,0,0],"split_type":[0,0,0,0,0,0,0,0,0,0,0,0,0,0,0,0,0,0,0,0,0,0,0,0,0,0,0,0,0],"sum_hessian":[5.1279385E3,1.3986481E3,3.7292905E3,3.1281293E2,1.0858351E3,1.6441805E3,2.08511E3,1.4834741E2,1.6446552E2,8.2108203E2,2.6475308E2,4.412107E2,1.2029698E3,6.166208E2,1.4684893E3,1.3597707E2,1.2370348E1,4.212717E0,1.602528E2,7.34295E2,8.678701E1,2.1826025E2,4.6492825E1,2.6329626E2,1.7791444E2,1.3331026E2,1.0696595E3,1.0430581E2,1.3641835E3],"tree_param":{"num_deleted":"0","num_feature":"104","num_nodes":"29","size_leaf_vector":"1"}},{"base_weights":[1.9027129E-2,-6.1843824E-1,2.6528358E-1,-9.483986E-1,-4.1535628E-1,4.667347E-1,-3.63671E-1,-1.1089249E0,-6.620114E-1,-2.0541155E-1,-8.117128E-1,1.5512262E-1,2.3950674E-2,-7.611252E-1,-1.9354652E-1,-1.7096438E-2,-1.2424233E-2,2.1640087E-2,-1.2853496E-2,-6.7187427E-3,2.4454813E-2,-1.4654952E-2,-5.4691145E-3,9.263749E-3,-2.545659E-3,-1.6742837E-2,-8.665002E-3,-2.8869114E-4,-9.297557E-3],"categories":[],"categories_nodes":[],"categories_segments":[],"categories_sizes":[],"default_left":[0,0,0,0,0,0,0,0,0,0,0,0,0,0,0,0,0,0,0,0,0,0,0,0,0,0,0,0,0],"id":16,"left_children":[1,3,5,7,9,11,13,15,17,19,21,23,-1,25,27,-1,-1,-1,-1,-1,-1,-1,-1,-1,-1,-1,-1,-1,-1],"loss_changes":[8.018082E2,9.407556E1,4.6732315E2,2.267688E1,7.2980194E1,1.1391228E3,5.9873016E1,7.008911E0,1.3530917E2,3.4620026E2,3.2735092E1,4.1401346E2,0E0,1.2856201E1,5.3557594E1,0E0,0E0,0E0,0E0,0E0,0E0,0E0,0E0,0E0,0E0,0E0,0E0,0E0,0E0],"parents":[2147483647,0,0,1,1,2,2,3,3,4,4,5,5,6,6,7,7,8,8,9,9,10,10,11,11,13,13,14,14],"right_children":[2,4,6,8,10,12,14,16,18,20,22,24,-1,26,28,-1,-1,-1,-1,-1,-1,-1,-1,-1,-1,-1,-1,-1,-1],"split_conditions":[9.062485E-1,7.783841E-1,5E-1,1.6407366E-3,5E-1,4.3320274E-1,1.34407E-1,1.2354709E0,6.25E-2,2.517853E-1,5.109509E-1,4.330127E-1,2.3950674E-2,7.4353105E-1,4E0,-1.7096438E-2,-1.2424233E-2,2.1640087E-2,-1.2853496E-2,-6.7187427E-3,2.4454813E-2,-1.4654952E-2,-5.4691145E-3,9.263749E-3,-2.545659E-3,-1.6742837E-2,-8.665002E-3,-2.8869114E-4,-9.297557E-3],"split_indices":[103,103,59,98,61,59,26,25,98,61,61,59,0,89,29,0,0,0,0,0,0,0,0,0,0,0,0,0,0],"split_type":[0,0,0,0,0,0,0,0,0,0,0,0,0,0,0,0,0,0,0,0,0,0,0,0,0,0,0,0,0],"sum_hessian":[5.10413E3,1.4210392E3,3.6830906E3,5.3781036E2,8.832289E2,2.7904114E3,8.926792E2,3.3999124E2,1.9781909E2,5.800438E2,3.0318506E2,2.2564744E3,5.339371E2,2.6477673E2,6.2790247E2,1.7583218E2,1.6415906E2,2.1331347E1,1.7648775E2,5.0807446E2,7.196936E1,1.779354E2,1.2524966E2,8.854066E2,1.3710677E3,4.7667336E1,2.1710939E2,4.6836514E2,1.5953732E2],"tree_param":{"num_deleted":"0","num_feature":"104","num_nodes":"29","size_leaf_vector":"1"}},{"base_weights":[-8.861182E-3,-4.822313E-1,3.251377E-1,-7.737938E-1,-1.5655264E-1,-1.351633E-1,5.6801224E-1,-1.1142869E0,-6.2219644E-1,2.3576574E-2,-5.80339E-1,1.2561727E-1,-5.536816E-1,2.3970421E-2,6.4486037E-3,7.831206E-3,-1.5351884E-2,-6.1387485E-3,-1.3469276E-2,2.4171578E-2,-1.0345614E-2,-3.3908756E-3,2.4231015E-2,-9.783252E-3,-2.1614616E-3,-6.2557813E-3,2.6363246E-3],"categories":[],"categories_nodes":[],"categories_segments":[],"categories_sizes":[],"default_left":[0,0,0,0,0,0,0,0,0,0,0,0,0,0,0,0,0,0,0,0,0,0,0,0,0,0,0],"id":17,"left_children":[1,3,5,7,9,11,13,15,17,-1,19,21,23,-1,25,-1,-1,-1,-1,-1,-1,-1,-1,-1,-1,-1,-1],"loss_changes":[7.9899927E2,1.9797357E2,3.314907E2,5.484308E1,8.021033E2,1.1209923E2,1.3183673E3,1.5758728E1,4.6850464E1,0E0,3.6383688E2,4.0043692E2,2.6162369E1,0E0,1.183074E2,0E0,0E0,0E0,0E0,0E0,0E0,0E0,0E0,0E0,0E0,0E0,0E0],"parents":[2147483647,0,0,1,1,2,2,3,3,4,4,5,5,6,6,7,7,8,8,10,10,11,11,12,12,14,14],"right_children":[2,4,6,8,10,12,14,16,18,-1,20,22,24,-1,26,-1,-1,-1,-1,-1,-1,-1,-1,-1,-1,-1,-1],"split_conditions":[9.80231E-1,1.6407366E-3,1.31221255E-2,7.783841E-1,1E0,0E0,1E0,-3.6942276E-1,2.5E-1,2.3576574E-2,1E0,-2.4888732E-1,1.2553031E0,2.3970421E-2,1.1248696E-1,7.831206E-3,-1.5351884E-2,-6.1387485E-3,-1.3469276E-2,2.4171578E-2,-1.0345614E-2,-3.3908756E-3,2.4231015E-2,-9.783252E-3,-2.1614616E-3,-6.2557813E-3,2.6363246E-3],"split_indices":[103,98,67,103,67,70,67,50,60,0,62,70,103,0,6,0,0,0,0,0,0,0,0,0,0,0,0],"split_type":[0,0,0,0,0,0,0,0,0,0,0,0,0,0,0,0,0,0,0,0,0,0,0,0,0,0,0],"sum_hessian":[5.049047E3,2.0887544E3,2.9602925E3,1.1000243E3,9.8873E2,1.0223257E3,1.9379669E3,3.340619E2,7.659624E2,1.7850139E2,8.1022864E2,6.3028076E2,3.9204495E2,6.124415E2,1.3255254E3,3.9497104E0,3.3011215E2,5.350976E2,2.3086479E2,5.7802326E1,7.524263E2,5.1558386E2,1.1469685E2,2.7079803E2,1.2124691E2,3.7864804E2,9.468774E2],"tree_param":{"num_deleted":"0","num_feature":"104","num_nodes":"27","size_leaf_vector":"1"}},{"base_weights":[-1.1036165E-2,-8.281636E-1,1.3887952E-1,-8.593233E-1,7.143824E-1,-3.0782428E-1,4.362413E-1,-1.1497175E0,-6.941447E-1,-5.3410836E-2,1.8789046E-2,-6.168453E-1,-2.8081983E-2,2.4427883E-2,-1.6791187E-1,-0E0,-1.5830666E-2,-1.5759012E-2,-6.905608E-3,7.0463438E-3,-8.982637E-3,-1.5873943E-2,-6.889648E-3,2.328725E-2,-3.2777954E-3,-4.986258E-3,5.543478E-3],"categories":[],"categories_nodes":[],"categories_segments":[],"categories_sizes":[],"default_left":[0,0,0,0,0,0,0,0,0,0,0,0,0,0,0,0,0,0,0,0,0,0,0,0,0,0,0],"id":18,"left_children":[1,3,5,7,9,11,13,15,17,19,-1,21,23,-1,25,-1,-1,-1,-1,-1,-1,-1,-1,-1,-1,-1,-1],"loss_changes":[6.2224603E2,3.9200134E1,5.702189E2,3.477777E1,9.236434E0,1.4803723E2,2.1440928E3,8.16507E0,4.12527E1,4.16927E0,0E0,4.6417267E1,3.4159503E2,0E0,2.1015327E2,0E0,0E0,0E0,0E0,0E0,0E0,0E0,0E0,0E0,0E0,0E0,0E0],"parents":[2147483647,0,0,1,1,2,2,3,3,4,4,5,5,6,6,7,7,8,8,9,9,11,11,12,12,14,14],"right_children":[2,4,6,8,10,12,14,16,18,20,-1,22,24,-1,26,-1,-1,-1,-1,-1,-1,-1,-1,-1,-1,-1,-1],"split_conditions":[1.2458718E0,8.53662E-1,1.4595216E-2,-5.9955883E-1,6.197259E-2,1.6407366E-3,1E0,5.8493733E-1,1.5761973E0,7.60656E-2,1.8789046E-2,4.7357325E-2,6.25E-2,2.4427883E-2,1.0401678E0,-0E0,-1.5830666E-2,-1.5759012E-2,-6.905608E-3,7.0463438E-3,-8.982637E-3,-1.5873943E-2,-6.889648E-3,2.328725E-2,-3.2777954E-3,-4.986258E-3,5.543478E-3],"split_indices":[25,3,53,48,10,98,53,102,36,44,0,32,98,0,53,0,0,0,0,0,0,0,0,0,0,0,0],"split_type":[0,0,0,0,0,0,0,0,0,0,0,0,0,0,0,0,0,0,0,0,0,0,0,0,0,0,0],"sum_hessian":[5.0735684E3,7.853883E2,4.28818E3,7.709687E2,1.4419581E1,1.7132703E3,2.57491E3,2.7422433E2,4.967444E2,7.457788E0,6.961794E0,8.1225665E2,9.010136E2,7.8434467E2,1.7905653E3,5.7013693E0,2.6852298E2,1.3372284E2,3.630215E2,3.724934E0,3.7328537E0,1.2477544E2,6.874812E2,9.654337E1,8.044703E2,1.3284535E3,4.6211182E2],"tree_param":{"num_deleted":"0","num_feature":"104","num_nodes":"27","size_leaf_vector":"1"}},{"base_weights":[7.491191E-3,-5.4537594E-1,2.8358027E-1,-7.8576577E-1,-2.6220152E-1,-1.6063008E-1,5.244261E-1,-1.1361198E0,-6.5430087E-1,1.6751639E0,-6.233232E-1,6.544315E-2,-5.2461743E-1,2.3607729E-2,-1.4559292E-2,7.218846E-3,-1.569011E-2,-5.436866E-3,-1.1527408E-2,-1.2711974E-4,2.2938242E-2,2.3654366E-2,-1.0782274E-2,-4.0278137E-3,2.3947092E-2,-2.3654622E-3,-9.824637E-3,-6.191164E-3,2.5927539E-3],"categories":[],"categories_nodes":[],"categories_segments":[],"categories_sizes":[],"default_left":[0,0,0,0,0,0,0,0,0,0,0,0,0,0,0,0,0,0,0,0,0,0,0,0,0,0,0,0,0],"id":19,"left_children":[1,3,5,7,9,11,13,15,17,19,21,23,25,-1,27,-1,-1,-1,-1,-1,-1,-1,-1,-1,-1,-1,-1,-1,-1],"loss_changes":[7.7627924E2,1.1450232E2,3.632611E2,3.9941223E1,5.485628E2,9.846705E1,1.4565186E3,1.3093353E1,3.2671387E1,6.1839294E0,2.8026648E2,4.616411E2,3.212281E1,0E0,1.412349E2,0E0,0E0,0E0,0E0,0E0,0E0,0E0,0E0,0E0,0E0,0E0,0E0,0E0,0E0],"parents":[2147483647,0,0,1,1,2,2,3,3,4,4,5,5,6,6,7,7,8,8,9,9,10,10,11,11,12,12,14,14],"right_children":[2,4,6,8,10,12,14,16,18,20,22,24,26,-1,28,-1,-1,-1,-1,-1,-1,-1,-1,-1,-1,-1,-1,-1,-1],"split_conditions":[9.379743E-1,1.6407366E-3,5.6869173E-3,7.4494845E-1,4.330127E-1,0E0,4.330127E-1,-3.4861887E-1,1E0,5.6869173E-3,1E0,-2.4888732E-1,-8.3156146E-2,2.3607729E-2,1.2608932E0,7.218846E-3,-1.569011E-2,-5.436866E-3,-1.1527408E-2,-1.2711974E-4,2.2938242E-2,2.3654366E-2,-1.0782274E-2,-4.0278137E-3,2.3947092E-2,-2.3654622E-3,-9.824637E-3,-6.191164E-3,2.5927539E-3],"split_indices":[103,98,69,103,69,70,69,50,62,69,62,70,11,0,31,0,0,0,0,0,0,0,0,0,0,0,0,0,0],"split_type":[0,0,0,0,0,0,0,0,0,0,0,0,0,0,0,0,0,0,0,0,0,0,0,0,0,0,0,0,0],"sum_hessian":[5.081976E3,1.691494E3,3.390482E3,9.1219006E2,7.79304E2,1.1917563E3,2.1987256E3,2.4378433E2,6.684057E2,1.2108282E2,6.582212E2,7.3565875E2,4.560977E2,6.696688E2,1.5290568E3,3.2053978E0,2.4057893E2,3.0094028E2,3.6746545E2,1.7309396E0,1.1935188E2,4.4090595E1,6.1413055E2,6.0782684E2,1.278319E2,1.7048656E2,2.856111E2,4.8517877E2,1.0438779E3],"tree_param":{"num_deleted":"0","num_feature":"104","num_nodes":"29","size_leaf_vector":"1"}},{"base_weights":[2.0695731E-4,-5.1457334E-1,2.5839725E-1,-8.347705E-1,-2.7291617E-1,-1.7286532E-1,5.250074E-1,-5.2275485E-1,-1.0646616E0,2.4171552E-2,-5.1130515E-1,1.865658E-1,-4.7802043E-1,2.3514267E-2,2.7215195E-1,-1.4198978E-2,2.3928246E-2,-1.6876983E-2,-1.1331667E-2,-1.2942613E-2,-3.0943572E-3,-7.5679813E-3,2.3304718E-2,-1.0172095E-2,-3.8427794E-3,-5.1467014E-3,7.631041E-3],"categories":[],"categories_nodes":[],"categories_segments":[],"categories_sizes":[],"default_left":[0,0,0,0,0,0,0,0,0,0,0,0,0,0,0,0,0,0,0,0,0,0,0,0,0,0,0],"id":20,"left_children":[1,3,5,7,9,11,13,15,17,-1,19,21,23,-1,25,-1,-1,-1,-1,-1,-1,-1,-1,-1,-1,-1,-1],"loss_changes":[6.729758E2,1.2999902E2,3.8812537E2,5.0347412E1,4.781194E2,1.4174146E2,6.4152325E2,3.8515833E2,1.4510712E1,0E0,1.0909062E2,6.870844E2,3.6491287E1,0E0,3.3329428E2,0E0,0E0,0E0,0E0,0E0,0E0,0E0,0E0,0E0,0E0,0E0,0E0],"parents":[2147483647,0,0,1,1,2,2,3,3,4,4,5,5,6,6,7,7,8,8,10,10,11,11,12,12,14,14],"right_children":[2,4,6,8,10,12,14,16,18,-1,20,22,24,-1,26,-1,-1,-1,-1,-1,-1,-1,-1,-1,-1,-1,-1],"split_conditions":[1.0637869E0,2.517853E-1,2.517853E-1,2.5E-1,5E-1,4.330127E-1,5E-1,1.5141594E-2,1.1076525E0,2.4171552E-2,5.109509E-1,1.8856222E-2,5.6869173E-3,2.3514267E-2,5.109509E-1,-1.4198978E-2,2.3928246E-2,-1.6876983E-2,-1.1331667E-2,-1.2942613E-2,-3.0943572E-3,-7.5679813E-3,2.3304718E-2,-1.0172095E-2,-3.8427794E-3,-5.1467014E-3,7.631041E-3],"split_indices":[89,61,61,61,61,64,61,61,24,0,61,64,69,0,61,0,0,0,0,0,0,0,0,0,0,0,0],"split_type":[0,0,0,0,0,0,0,0,0,0,0,0,0,0,0,0,0,0,0,0,0,0,0,0,0,0,0],"sum_hessian":[5.0597524E3,1.6889423E3,3.3708103E3,7.2359595E2,9.6534625E2,1.2875664E3,2.083244E3,3.1052493E2,4.13071E2,9.826939E1,8.670769E2,5.910825E2,6.964839E2,3.5531863E2,1.7279252E3,2.5330907E2,5.7215878E1,2.1858562E2,1.944854E2,3.3181766E2,5.352592E2,3.988112E2,1.922713E2,2.8278766E2,4.1369623E2,5.35414E2,1.1925112E3],"tree_param":{"num_deleted":"0","num_feature":"104","num_nodes":"27","size_leaf_vector":"1"}},{"base_weights":[-5.44501E-3,-5.906382E-1,2.3697741E-1,-3.7430143E-1,-8.752908E-1,-1.9953473E-1,5.033802E-1,-7.9292256E-1,2.4917865E-2,-6.605567E-1,-1.073019E0,-4.8522558E-2,-6.524134E-1,2.3773309E-2,-6.420627E-2,-1.517325E-2,-8.281155E-3,-1.3037499E-2,2.2334768E-2,-1.6081274E-2,-1.079338E-2,-3.7422283E-3,2.3267819E-2,-1.0260013E-2,-1.9640857E-3,-3.4458654E-3,5.8925194E-3],"categories":[],"categories_nodes":[],"categories_segments":[],"categories_sizes":[],"default_left":[0,0,0,0,0,0,0,0,0,0,0,0,0,0,0,0,0,0,0,0,0,0,0,0,0,0,0],"id":21,"left_children":[1,3,5,7,9,11,13,15,-1,17,19,21,23,-1,25,-1,-1,-1,-1,-1,-1,-1,-1,-1,-1,-1,-1],"loss_changes":[7.19953E2,9.0441345E1,4.1749255E2,7.9299506E2,2.5083618E1,9.275645E1,1.5956592E3,4.0504578E1,0E0,2.2578665E2,8.072693E0,4.16767E2,1.8198303E1,0E0,1.4793079E2,0E0,0E0,0E0,0E0,0E0,0E0,0E0,0E0,0E0,0E0,0E0,0E0],"parents":[2147483647,0,0,1,1,2,2,3,3,4,4,5,5,6,6,7,7,9,9,10,10,11,11,12,12,14,14],"right_children":[2,4,6,8,10,12,14,16,-1,18,20,22,24,-1,26,-1,-1,-1,-1,-1,-1,-1,-1,-1,-1,-1,-1],"split_conditions":[9.155833E-1,1E0,1.4595216E-2,1.4595216E-2,1E0,5E-1,1E0,7.893543E-1,2.4917865E-2,3.7415389E-3,7.14E-1,4.3320274E-1,2.1117043E0,2.3773309E-2,1.0401678E0,-1.517325E-2,-8.281155E-3,-1.3037499E-2,2.2334768E-2,-1.6081274E-2,-1.079338E-2,-3.7422283E-3,2.3267819E-2,-1.0260013E-2,-1.9640857E-3,-3.4458654E-3,5.8925194E-3],"split_indices":[103,53,53,53,67,59,53,89,0,66,4,59,89,0,53,0,0,0,0,0,0,0,0,0,0,0,0],"split_type":[0,0,0,0,0,0,0,0,0,0,0,0,0,0,0,0,0,0,0,0,0,0,0,0,0,0,0],"sum_hessian":[5.0699155E3,1.4845745E3,3.585341E3,8.469578E2,6.3761664E2,1.3585615E3,2.2267795E3,7.14026E2,1.3293187E2,3.1087885E2,3.267378E2,1.0211427E3,3.3741876E2,6.901084E2,1.5366711E3,2.4455907E2,4.6946692E2,2.7575012E2,3.512874E1,2.2077919E2,1.059586E2,9.061346E2,1.15008125E2,2.7630612E2,6.111264E1,1.1132574E3,4.2341373E2],"tree_param":{"num_deleted":"0","num_feature":"104","num_nodes":"27","size_leaf_vector":"1"}},{"base_weights":[1.5541113E-2,-6.0188556E-1,2.568673E-1,-9.615467E-1,-4.1242406E-1,-1.833141E-1,4.8985696E-1,-1.0973439E0,-6.427554E-1,-8.1827384E-1,-1.6397108E-1,-5.678788E-1,-1.9348914E-2,2.314029E-2,-3.5321377E-2,-7.413538E-3,-1.5642935E-2,-6.626857E-3,-1.7527254E-2,-1.2073855E-2,-0E0,2.3074914E-2,-7.3351883E-3,-9.650408E-3,-2.168555E-3,1.0508603E-3,-1.050705E-2,-6.773146E-3,1.765429E-3],"categories":[],"categories_nodes":[],"categories_segments":[],"categories_sizes":[],"default_left":[0,0,0,0,0,0,0,0,0,0,0,0,0,0,0,0,0,0,0,0,0,0,0,0,0,0,0,0,0],"id":22,"left_children":[1,3,5,7,9,11,13,15,17,19,21,23,25,-1,27,-1,-1,-1,-1,-1,-1,-1,-1,-1,-1,-1,-1,-1,-1],"loss_changes":[7.5554626E2,9.5792175E1,3.742805E2,1.9112915E1,9.39245E1,7.943021E1,1.538198E3,9.85611E0,1.3153046E1,2.2381577E1,4.1879147E2,2.2196434E1,6.6100136E1,0E0,1.3024382E2,0E0,0E0,0E0,0E0,0E0,0E0,0E0,0E0,0E0,0E0,0E0,0E0,0E0,0E0],"parents":[2147483647,0,0,1,1,2,2,3,3,4,4,5,5,6,6,7,7,8,8,9,9,10,10,11,11,12,12,14,14],"right_children":[2,4,6,8,10,12,14,16,18,20,22,24,26,-1,28,-1,-1,-1,-1,-1,-1,-1,-1,-1,-1,-1,-1,-1,-1],"split_conditions":[9.089075E-1,6.422E-2,5.6869173E-3,7.891286E-2,5.6869173E-3,6.028568E-1,4.330127E-1,5.2770364E-1,4.8473176E-1,2.7132002E-1,4.330127E-1,1.20569E0,7.5E-1,2.314029E-2,1.0701671E-1,-7.413538E-3,-1.5642935E-2,-6.626857E-3,-1.7527254E-2,-1.2073855E-2,-0E0,2.3074914E-2,-7.3351883E-3,-9.650408E-3,-2.168555E-3,1.0508603E-3,-1.050705E-2,-6.773146E-3,1.765429E-3],"split_indices":[103,32,69,26,69,4,69,43,66,26,69,103,56,0,6,0,0,0,0,0,0,0,0,0,0,0,0,0,0],"split_type":[0,0,0,0,0,0,0,0,0,0,0,0,0,0,0,0,0,0,0,0,0,0,0,0,0,0,0,0,0],"sum_hessian":[5.067196E3,1.4227026E3,3.644493E3,4.8728442E2,9.354183E2,1.2610482E3,2.3834448E3,3.373597E2,1.4992471E2,3.5284482E2,5.825735E2,3.7478226E2,8.862659E2,7.1304987E2,1.6703949E3,3.7701588E1,2.996581E2,1.25353004E2,2.4571714E1,3.218741E2,3.09707E1,9.679097E1,4.857825E2,2.7295227E2,1.01829956E2,7.8698676E2,9.9279175E1,4.3789355E2,1.2325013E3],"tree_param":{"num_deleted":"0","num_feature":"104","num_nodes":"29","size_leaf_vector":"1"}},{"base_weights":[6.7910845E-3,-4.4607875E-1,3.161768E-1,-7.240391E-1,-1.3364384E-1,5.020222E-1,-2.871412E-1,-1.0271764E0,-5.8521235E-1,2.2533016E-2,-4.7019446E-1,2.1294563E-1,2.2964736E-2,-6.828511E-1,-1.3825737E-1,7.916679E-3,-1.4162309E-2,-3.6501922E-3,-1.0878714E-2,2.317928E-2,-8.827433E-3,9.625872E-3,-1.4353294E-3,-0E0,-1.1081777E-2,-6.1137904E-3,6.4256747E-4],"categories":[],"categories_nodes":[],"categories_segments":[],"categories_sizes":[],"default_left":[0,0,0,0,0,0,0,0,0,0,0,0,0,0,0,0,0,0,0,0,0,0,0,0,0,0,0],"id":23,"left_children":[1,3,5,7,9,11,13,15,17,-1,19,21,-1,23,25,-1,-1,-1,-1,-1,-1,-1,-1,-1,-1,-1,-1],"loss_changes":[7.1173627E2,1.7853867E2,3.388326E2,4.405597E1,5.929885E2,8.008847E2,4.1461468E1,1.4428436E1,5.1746857E1,0E0,3.3499576E2,2.988665E2,0E0,1.8429047E1,3.0703907E1,0E0,0E0,0E0,0E0,0E0,0E0,0E0,0E0,0E0,0E0,0E0,0E0],"parents":[2147483647,0,0,1,1,2,2,3,3,4,4,5,5,6,6,7,7,8,8,10,10,11,11,13,13,14,14],"right_children":[2,4,6,8,10,12,14,16,18,-1,20,22,-1,24,26,-1,-1,-1,-1,-1,-1,-1,-1,-1,-1,-1,-1],"split_conditions":[9.780576E-1,1.6407366E-3,5E-1,7.783841E-1,2.5E-1,4.3320274E-1,1.1845706E0,-3.6942276E-1,1E0,2.2533016E-2,1E0,4.330127E-1,2.2964736E-2,1.0539731E0,1.3329016E0,7.916679E-3,-1.4162309E-2,-3.6501922E-3,-1.0878714E-2,2.317928E-2,-8.827433E-3,9.625872E-3,-1.4353294E-3,-0E0,-1.1081777E-2,-6.1137904E-3,6.4256747E-4],"split_indices":[103,98,59,103,66,59,89,50,62,0,62,59,0,24,31,0,0,0,0,0,0,0,0,0,0,0,0],"split_type":[0,0,0,0,0,0,0,0,0,0,0,0,0,0,0,0,0,0,0,0,0,0,0,0,0,0,0],"sum_hessian":[5.0758457E3,2.0593767E3,3.016469E3,1.0877733E3,9.716034E2,2.3067944E3,7.0967444E2,3.3667285E2,7.5110046E2,1.5116777E2,8.204356E2,1.8618136E3,4.44981E2,1.9132588E2,5.183485E2,3.9389796E0,3.3273386E2,3.1346338E2,4.3763705E2,6.2338074E1,7.5809753E2,7.2402124E2,1.1377922E3,3.279076E1,1.5853513E2,1.917798E2,3.2656873E2],"tree_param":{"num_deleted":"0","num_feature":"104","num_nodes":"27","size_leaf_vector":"1"}},{"base_weights":[2.4285463E-3,-6.217172E-1,2.2809258E-1,-8.3792734E-1,-3.4088558E-1,4.08799E-1,-3.5519958E-1,-1.0857698E0,-6.75779E-1,2.232047E-2,-6.6966E-1,1.15351915E-1,2.286261E-2,-7.018404E-1,-2.0197266E-1,-7.843318E-3,-1.5898235E-2,2.3303654E-3,-1.1759307E-2,2.0823687E-2,-1.0521123E-2,8.309595E-3,-2.7380504E-3,-7.2760796E-3,-1.4438598E-2,-7.233195E-4,-7.5732833E-3],"categories":[],"categories_nodes":[],"categories_segments":[],"categories_sizes":[],"default_left":[0,0,0,0,0,0,0,0,0,0,0,0,0,0,0,0,0,0,0,0,0,0,0,0,0,0,0],"id":24,"left_children":[1,3,5,7,9,11,13,15,17,-1,19,21,-1,23,25,-1,-1,-1,-1,-1,-1,-1,-1,-1,-1,-1,-1],"loss_changes":[7.142507E2,8.0757996E1,3.9301544E2,2.8346619E1,3.893813E2,1.0742919E3,4.6239853E1,1.19513855E1,7.822014E1,0E0,1.2728023E2,3.7082217E2,0E0,1.4323914E1,3.2573967E1,0E0,0E0,0E0,0E0,0E0,0E0,0E0,0E0,0E0,0E0,0E0,0E0],"parents":[2147483647,0,0,1,1,2,2,3,3,4,4,5,5,6,6,7,7,8,8,10,10,11,11,13,13,14,14],"right_children":[2,4,6,8,10,12,14,16,18,-1,20,22,-1,24,26,-1,-1,-1,-1,-1,-1,-1,-1,-1,-1,-1,-1],"split_conditions":[8.995924E-1,1.6407366E-3,5E-1,1.2564709E0,6.25E-2,4.3320274E-1,6.067363E-1,3.8301167E-1,2E0,2.232047E-2,2.48478E-1,4.330127E-1,2.286261E-2,-1.9765833E-2,2.4941258E-1,-7.843318E-3,-1.5898235E-2,2.3303654E-3,-1.1759307E-2,2.0823687E-2,-1.0521123E-2,8.309595E-3,-2.7380504E-3,-7.2760796E-3,-1.4438598E-2,-7.233195E-4,-7.5732833E-3],"split_indices":[103,98,59,25,98,59,4,27,25,0,66,59,0,11,70,0,0,0,0,0,0,0,0,0,0,0,0],"split_type":[0,0,0,0,0,0,0,0,0,0,0,0,0,0,0,0,0,0,0,0,0,0,0,0,0,0,0],"sum_hessian":[5.0677827E3,1.3443528E3,3.72343E3,7.5652325E2,5.878295E2,2.8436575E3,8.7977234E2,2.9361536E2,4.629079E2,8.173991E1,5.0608963E2,2.3179785E3,5.256791E2,2.6668973E2,6.1308264E2,4.909089E1,2.4452446E2,8.686259E1,3.7604532E2,2.2711103E1,4.8337854E2,9.002957E2,1.4176829E3,1.8968303E2,7.7006714E1,4.3658517E2,1.7649745E2],"tree_param":{"num_deleted":"0","num_feature":"104","num_nodes":"27","size_leaf_vector":"1"}},{"base_weights":[3.6599697E-3,-3.8931605E-1,2.7867326E-1,-7.1727973E-1,-1.8898961E-1,2.3569668E-2,-2.8831056E-1,-9.364867E-1,-5.252862E-1,-8.122139E-1,-5.5184916E-2,-4.7910646E-1,2.7811378E-1,-1.3599714E-2,-5.414182E-3,2.2387408E-2,-9.338473E-3,-1.2979664E-2,-4.9561984E-3,2.3892606E-2,-3.7635337E-3,-1.1060351E-2,-3.4327228E-3,2.3974061E-2,-1.0046456E-2],"categories":[],"categories_nodes":[],"categories_segments":[],"categories_sizes":[],"default_left":[0,0,0,0,0,0,0,0,0,0,0,0,0,0,0,0,0,0,0,0,0,0,0,0,0],"id":25,"left_children":[1,3,5,7,9,-1,11,13,15,17,19,21,23,-1,-1,-1,-1,-1,-1,-1,-1,-1,-1,-1,-1],"loss_changes":[5.4380347E2,1.3549164E2,2.4697703E3,3.1467712E1,1.0713483E2,0E0,2.314583E2,1.2755463E1,1.5739136E2,1.4051605E1,4.3646945E2,1.2190799E2,8.323014E2,0E0,0E0,0E0,0E0,0E0,0E0,0E0,0E0,0E0,0E0,0E0,0E0],"parents":[2147483647,0,0,1,1,2,2,3,3,4,4,6,6,7,7,8,8,9,9,10,10,11,11,12,12],"right_children":[2,4,6,8,10,-1,12,14,16,18,20,22,24,-1,-1,-1,-1,-1,-1,-1,-1,-1,-1,-1,-1],"split_conditions":[1.4595216E-2,4.200441E-1,1E0,2.517853E-1,3.5046635E-3,2.3569668E-2,1.0401678E0,2.3321915E0,4.9843916E-1,2.601939E0,9.9648917E-1,4.2922503E-1,2E0,-1.3599714E-2,-5.414182E-3,2.2387408E-2,-9.338473E-3,-1.2979664E-2,-4.9561984E-3,2.3892606E-2,-3.7635337E-3,-1.1060351E-2,-3.4327228E-3,2.3974061E-2,-1.0046456E-2],"split_indices":[53,3,53,61,57,0,53,36,61,37,57,3,53,0,0,0,0,0,0,0,0,0,0,0,0],"split_type":[0,0,0,0,0,0,0,0,0,0,0,0,0,0,0,0,0,0,0,0,0,0,0,0,0],"sum_hessian":[5.027884E3,2.0691343E3,2.9587495E3,7.819078E2,1.2872264E3,8.223832E2,2.1363665E3,3.604353E2,4.2147244E2,2.2517877E2,1.0620476E3,1.598753E3,5.3761334E2,3.151219E2,4.53134E1,2.8530415E1,3.9294205E2,1.6569601E2,5.9482758E1,1.14206245E2,9.4784143E2,6.3101306E2,9.6774E2,2.1748741E2,3.2012595E2],"tree_param":{"num_deleted":"0","num_feature":"104","num_nodes":"25","size_leaf_vector":"1"}},{"base_weights":[-8.515491E-3,-3.7195963E-1,2.788338E-1,-6.970579E-1,-7.3036075E-2,5.4723185E-1,-4.3683715E-2,-7.947192E-1,-3.2389978E-1,2.255912E-2,-4.934947E-1,-1.2444975E-1,2.2628887E-2,5.053303E-1,-1.8420117E-1,-7.784472E-3,-1.3187945E-2,1.3681082E-2,-1.1685112E-2,2.148959E-2,-7.364742E-3,-6.4639975E-3,7.346198E-4,-8.773568E-3,2.3884948E-2,-5.460256E-3,1.7864645E-3],"categories":[],"categories_nodes":[],"categories_segments":[],"categories_sizes":[],"default_left":[0,0,0,0,0,0,0,0,0,0,0,0,0,0,0,0,0,0,0,0,0,0,0,0,0,0,0],"id":26,"left_children":[1,3,5,7,9,11,13,15,17,-1,19,21,-1,23,25,-1,-1,-1,-1,-1,-1,-1,-1,-1,-1,-1,-1],"loss_changes":[5.221258E2,2.1419113E2,2.4185054E2,3.759607E1,8.483595E2,1.1598002E3,9.800931E1,3.1630676E1,1.6437416E2,0E0,1.045296E2,6.1117313E1,0E0,3.8189984E2,7.108263E1,0E0,0E0,0E0,0E0,0E0,0E0,0E0,0E0,0E0,0E0,0E0,0E0],"parents":[2147483647,0,0,1,1,2,2,3,3,4,4,5,5,6,6,7,7,8,8,10,10,11,11,13,13,14,14],"right_children":[2,4,6,8,10,12,14,16,18,-1,20,22,-1,24,26,-1,-1,-1,-1,-1,-1,-1,-1,-1,-1,-1,-1],"split_conditions":[1.2187365E0,1.6407366E-3,1E0,2.4423969E-1,1E0,3.7415389E-3,9.9648917E-1,2E0,4E0,2.255912E-2,6.25E-2,1.2941681E0,2.2628887E-2,3.5046635E-3,2.5840068E-1,-7.784472E-3,-1.3187945E-2,1.3681082E-2,-1.1685112E-2,2.148959E-2,-7.364742E-3,-6.4639975E-3,7.346198E-4,-8.773568E-3,2.3884948E-2,-5.460256E-3,1.7864645E-3],"split_indices":[92,98,67,26,67,66,57,35,29,0,98,31,0,57,66,0,0,0,0,0,0,0,0,0,0,0,0],"split_type":[0,0,0,0,0,0,0,0,0,0,0,0,0,0,0,0,0,0,0,0,0,0,0,0,0,0,0],"sum_hessian":[4.9949907E3,2.2057095E3,2.7892812E3,1.05471E3,1.1509996E3,1.5221287E3,1.2671526E3,8.3332886E2,2.2138106E2,2.2190215E2,9.290975E2,9.562598E2,5.658689E2,2.5662515E2,1.01052747E3,3.869856E2,4.4634326E2,6.317678E1,1.5820428E2,2.1313314E1,9.077841E2,3.198113E2,6.364485E2,1.3457175E2,1.220534E2,5.955496E2,4.1497784E2],"tree_param":{"num_deleted":"0","num_feature":"104","num_nodes":"27","size_leaf_vector":"1"}},{"base_weights":[3.364778E-3,-5.4771703E-1,2.344816E-1,-9.446004E-1,-3.988023E-1,4.14262E-1,-3.3787054E-1,-1.0276465E0,-5.201271E-1,2.451615E-2,-5.9621036E-1,1.3032526E-1,2.244238E-2,-6.815024E-1,-1.7284903E-1,-1.5948553E-2,-1.0680829E-2,-9.784728E-3,1.2151902E-3,-1.2380887E-2,-4.323955E-3,8.136852E-3,-2.3472174E-3,-5.7109157E-3,-1.2404739E-2,-1.0177966E-2,-1.0690723E-3],"categories":[],"categories_nodes":[],"categories_segments":[],"categories_sizes":[],"default_left":[0,0,0,0,0,0,0,0,0,0,0,0,0,0,0,0,0,0,0,0,0,0,0,0,0,0,0],"id":27,"left_children":[1,3,5,7,9,11,13,15,17,-1,19,21,-1,23,25,-1,-1,-1,-1,-1,-1,-1,-1,-1,-1,-1,-1],"loss_changes":[6.3988745E2,8.647836E1,3.6464026E2,1.2551575E1,4.763338E2,9.5647876E2,4.7497505E1,9.589935E0,9.255711E0,0E0,8.747482E1,3.1746042E2,0E0,1.5565796E1,3.0951382E1,0E0,0E0,0E0,0E0,0E0,0E0,0E0,0E0,0E0,0E0,0E0,0E0],"parents":[2147483647,0,0,1,1,2,2,3,3,4,4,5,5,6,6,7,7,8,8,10,10,11,11,13,13,14,14],"right_children":[2,4,6,8,10,12,14,16,18,-1,20,22,-1,24,26,-1,-1,-1,-1,-1,-1,-1,-1,-1,-1,-1,-1],"split_conditions":[9.2025596E-1,2.0136015E0,5E-1,8.8802063E-1,2.9904716E0,4.3320274E-1,1.1203507E-1,1.2612E-1,1.0233399E-3,2.451615E-2,3.0190809E0,4.330127E-1,2.244238E-2,1E0,4.8346186E-1,-1.5948553E-2,-1.0680829E-2,-9.784728E-3,1.2151902E-3,-1.2380887E-2,-4.323955E-3,8.136852E-3,-2.3472174E-3,-5.7109157E-3,-1.2404739E-2,-1.0177966E-2,-1.0690723E-3],"split_indices":[103,52,59,103,52,59,6,6,60,0,52,59,0,67,30,0,0,0,0,0,0,0,0,0,0,0,0],"split_type":[0,0,0,0,0,0,0,0,0,0,0,0,0,0,0,0,0,0,0,0,0,0,0,0,0,0,0],"sum_hessian":[5.020639E3,1.4821688E3,3.5384705E3,4.0069443E2,1.0814744E3,2.693567E3,8.449037E2,3.3195444E2,6.873998E1,8.682872E1,9.946456E2,2.1974336E3,4.9613327E2,2.713049E2,5.7359875E2,1.9366899E2,1.3828546E2,5.150554E1,1.7234442E1,4.5528717E2,5.3935846E2,8.597093E2,1.3377244E3,1.3402148E2,1.372834E2,7.679918E1,4.9679962E2],"tree_param":{"num_deleted":"0","num_feature":"104","num_nodes":"27","size_leaf_vector":"1"}},{"base_weights":[-2.3800414E-4,-5.419947E-1,2.3433194E-1,-8.7287694E-1,-3.2493794E-1,-1.7540948E-1,4.8671132E-1,-9.3207663E-1,-2.0203447E-1,2.2607159E-2,-6.9578224E-1,-1.6367355E-2,-6.610637E-1,2.2862269E-2,-4.992357E-2,-8.505662E-3,-1.35551505E-2,9.015722E-3,-1.3751785E-2,-1.4182688E-2,-7.090662E-3,-3.1338227E-3,2.226354E-2,-9.666643E-3,5.663609E-3,-3.3764734E-3,6.6206716E-3],"categories":[],"categories_nodes":[],"categories_segments":[],"categories_sizes":[],"default_left":[0,0,0,0,0,0,0,0,0,0,0,0,0,0,0,0,0,0,0,0,0,0,0,0,0,0,0],"id":28,"left_children":[1,3,5,7,9,11,13,15,17,-1,19,21,23,-1,25,-1,-1,-1,-1,-1,-1,-1,-1,-1,-1,-1,-1],"loss_changes":[6.3932874E2,1.0818817E2,3.6323602E2,2.3066284E1,6.868477E2,1.0316606E2,1.4114364E3,1.0331085E1,3.8520035E1,0E0,4.5462494E1,3.6506326E2,2.0784164E1,0E0,1.6382013E2,0E0,0E0,0E0,0E0,0E0,0E0,0E0,0E0,0E0,0E0,0E0,0E0],"parents":[2147483647,0,0,1,1,2,2,3,3,4,4,5,5,6,6,7,7,8,8,10,10,11,11,12,12,14,14],"right_children":[2,4,6,8,10,12,14,16,18,-1,20,22,24,-1,26,-1,-1,-1,-1,-1,-1,-1,-1,-1,-1,-1,-1],"split_conditions":[9.2025596E-1,3.7415389E-3,1.4595216E-2,2.680749E-1,1E0,5E-1,1E0,9.9648917E-1,4E0,2.2607159E-2,3.0541313E-1,4.3320274E-1,1.3599E0,2.2862269E-2,1.0401678E0,-8.505662E-3,-1.35551505E-2,9.015722E-3,-1.3751785E-2,-1.4182688E-2,-7.090662E-3,-3.1338227E-3,2.226354E-2,-9.666643E-3,5.663609E-3,-3.3764734E-3,6.6206716E-3],"split_indices":[103,66,53,26,67,59,53,57,29,0,3,59,4,0,53,0,0,0,0,0,0,0,0,0,0,0,0],"split_type":[0,0,0,0,0,0,0,0,0,0,0,0,0,0,0,0,0,0,0,0,0,0,0,0,0,0,0],"sum_hessian":[5.025881E3,1.518179E3,3.507702E3,5.982578E2,9.199212E2,1.3367672E3,2.1709348E3,5.4853015E2,4.9727623E1,1.4243793E2,7.774833E2,1.0091621E3,3.2760504E2,6.658844E2,1.5050503E3,1.1284357E2,4.356866E2,2.407906E1,2.5648563E1,2.46437E2,5.3104626E2,8.95195E2,1.1396713E2,3.1238293E2,1.5222096E1,1.0992969E3,4.0575345E2],"tree_param":{"num_deleted":"0","num_feature":"104","num_nodes":"27","size_leaf_vector":"1"}},{"base_weights":[-8.13822E-3,-5.0574696E-1,2.431613E-1,-8.312938E-1,-2.9866567E-1,4.2126155E-1,-3.2567146E-1,-9.8705333E-1,-6.2420636E-1,2.2442719E-2,-6.6221255E-1,1.4180292E-1,2.2100603E-2,-7.460238E-1,-1.6901809E-1,-2.559686E-3,-1.3700553E-2,-9.159462E-3,6.6928654E-3,-1.5031677E-2,-7.1777003E-3,8.039744E-3,-1.9695112E-3,-1.0716393E-2,2.6256552E-3,2.7690333E-4,-9.010617E-3],"categories":[],"categories_nodes":[],"categories_segments":[],"categories_sizes":[],"default_left":[0,0,0,0,0,0,0,0,0,0,0,0,0,0,0,0,0,0,0,0,0,0,0,0,0,0,0],"id":29,"left_children":[1,3,5,7,9,11,13,15,17,-1,19,21,-1,23,25,-1,-1,-1,-1,-1,-1,-1,-1,-1,-1,-1,-1],"loss_changes":[6.2881244E2,1.12862915E2,3.387282E2,1.9262787E1,7.4125476E2,8.657274E2,5.1924698E1,7.881378E0,1.8646927E1,0E0,4.9604553E1,2.7178748E2,0E0,1.0483864E1,5.5562256E1,0E0,0E0,0E0,0E0,0E0,0E0,0E0,0E0,0E0,0E0,0E0,0E0],"parents":[2147483647,0,0,1,1,2,2,3,3,4,4,5,5,6,6,7,7,8,8,10,10,11,11,13,13,14,14],"right_children":[2,4,6,8,10,12,14,16,18,-1,20,22,-1,24,26,-1,-1,-1,-1,-1,-1,-1,-1,-1,-1,-1,-1],"split_conditions":[9.4205815E-1,1.31221255E-2,5E-1,1.0414894E0,1E0,4.3320274E-1,1.299708E-1,9.682703E-2,3.836558E-1,2.2442719E-2,5.967887E-2,4.330127E-1,2.2100603E-2,1.5575577E-1,4E0,-2.559686E-3,-1.3700553E-2,-9.159462E-3,6.6928654E-3,-1.5031677E-2,-7.1777003E-3,8.039744E-3,-1.9695112E-3,-1.0716393E-2,2.6256552E-3,2.7690333E-4,-9.010617E-3],"split_indices":[103,67,59,89,67,59,26,86,26,0,26,59,0,87,29,0,0,0,0,0,0,0,0,0,0,0,0],"split_type":[0,0,0,0,0,0,0,0,0,0,0,0,0,0,0,0,0,0,0,0,0,0,0,0,0,0,0],"sum_hessian":[5.0236343E3,1.6854286E3,3.3382058E3,6.5217255E2,1.033256E3,2.5431018E3,7.95104E2,3.6674295E2,2.8542957E2,1.600616E2,8.731944E2,2.0708584E3,4.722434E2,2.131248E2,5.819792E2,1.4080905E1,3.5266205E2,2.730522E2,1.2377388E1,1.9003949E2,6.831549E2,8.024294E2,1.268429E3,2.0319006E2,9.934742E0,4.2288412E2,1.5909505E2],"tree_param":{"num_deleted":"0","num_feature":"104","num_nodes":"27","size_leaf_vector":"1"}},{"base_weights":[-1.1228289E-2,-3.8227507E-1,2.7834335E-1,-9.0338254E-1,-2.2318506E-1,-1.0756615E-1,5.2262145E-1,-1.1848204E0,-7.7200073E-1,2.3875395E-2,-3.997645E-1,-7.18023E-1,-3.77083E-4,2.2501104E-2,-9.9459635E-3,2.6829988E-3,-1.6294908E-2,-1.4022558E-2,-7.8324145E-3,-1.0946484E-2,-1.8879466E-3,-1.2291326E-2,-3.5562234E-3,2.2005243E-2,-1.652252E-3,-8.053043E-3,2.100265E-3],"categories":[],"categories_nodes":[],"categories_segments":[],"categories_sizes":[],"default_left":[0,0,0,0,0,0,0,0,0,0,0,0,0,0,0,0,0,0,0,0,0,0,0,0,0,0,0],"id":30,"left_children":[1,3,5,7,9,11,13,15,17,-1,19,21,23,-1,25,-1,-1,-1,-1,-1,-1,-1,-1,-1,-1,-1,-1],"loss_changes":[5.3513837E2,1.802164E2,2.63909E2,1.6250122E1,5.9143744E2,7.077854E1,1.0473483E3,6.1401978E0,1.6328583E1,0E0,1.6457764E2,1.3341553E1,1.8473175E2,0E0,1.14534515E2,0E0,0E0,0E0,0E0,0E0,0E0,0E0,0E0,0E0,0E0,0E0,0E0],"parents":[2147483647,0,0,1,1,2,2,3,3,4,4,5,5,6,6,7,7,8,8,10,10,11,11,12,12,14,14],"right_children":[2,4,6,8,10,12,14,16,18,-1,20,22,24,-1,26,-1,-1,-1,-1,-1,-1,-1,-1,-1,-1,-1,-1],"split_conditions":[1.2187365E0,2.0136015E0,1.4595216E-2,7.018387E-1,3E0,1.8856222E-2,1E0,-3.1807724E-1,5.6869173E-3,2.3875395E-2,3.0190809E0,1.9747065E0,4.330127E-1,2.2501104E-2,1.3933796E0,2.6829988E-3,-1.6294908E-2,-1.4022558E-2,-7.8324145E-3,-1.0946484E-2,-1.8879466E-3,-1.2291326E-2,-3.5562234E-3,2.2005243E-2,-1.652252E-3,-8.053043E-3,2.100265E-3],"split_indices":[89,52,53,89,52,64,53,50,69,0,52,89,64,0,25,0,0,0,0,0,0,0,0,0,0,0,0],"split_type":[0,0,0,0,0,0,0,0,0,0,0,0,0,0,0,0,0,0,0,0,0,0,0,0,0,0,0],"sum_hessian":[4.97606E3,2.1813845E3,2.7946753E3,5.0739215E2,1.6739924E3,1.0832238E3,1.7114515E3,1.5526816E2,3.52124E2,1.3442195E2,1.5395704E3,1.5952542E2,9.236983E2,5.414358E2,1.1700157E3,2.1802452E0,1.5308792E2,1.4163773E2,2.1048628E2,5.925351E2,9.4703534E2,1.0976189E2,4.9763546E1,6.2300808E1,8.613975E2,2.5669843E2,9.133173E2],"tree_param":{"num_deleted":"0","num_feature":"104","num_nodes":"27","size_leaf_vector":"1"}},{"base_weights":[-3.0662103E-3,-5.4216486E-1,2.2425409E-1,-8.477788E-1,-3.3642584E-1,-2.1830536E-1,4.1803026E-1,-9.1426086E-1,-1.19937964E-1,2.2068134E-2,-6.77722E-1,-1.2065137E-1,-9.5195943E-1,1.2973446E0,1.533525E-1,-1.7409777E-2,-1.10632125E-2,9.29838E-3,-1.2181554E-2,-1.4447595E-2,-7.2613503E-3,-2.8861796E-3,2.1995045E-2,-1.5120377E-2,-4.4110715E-3,7.3059965E-3,2.2555107E-2,3.2029662E-3,-1.0151087E-2],"categories":[],"categories_nodes":[],"categories_segments":[],"categories_sizes":[],"default_left":[0,0,0,0,0,0,0,0,0,0,0,0,0,0,0,0,0,0,0,0,0,0,0,0,0,0,0,0,0],"id":31,"left_children":[1,3,5,7,9,11,13,15,17,-1,19,21,23,25,27,-1,-1,-1,-1,-1,-1,-1,-1,-1,-1,-1,-1,-1,-1],"loss_changes":[6.1331946E2,9.234671E1,3.0206598E2,2.8226929E1,6.02587E2,7.6242E1,5.690296E2,1.6247772E1,3.4839756E1,0E0,3.996103E1,1.5587314E2,1.2044205E1,1.5819263E2,1.4429471E2,0E0,0E0,0E0,0E0,0E0,0E0,0E0,0E0,0E0,0E0,0E0,0E0,0E0,0E0],"parents":[2147483647,0,0,1,1,2,2,3,3,4,4,5,5,6,6,7,7,8,8,10,10,11,11,12,12,13,13,14,14],"right_children":[2,4,6,8,10,12,14,16,18,-1,20,22,24,26,28,-1,-1,-1,-1,-1,-1,-1,-1,-1,-1,-1,-1,-1,-1],"split_conditions":[9.2025596E-1,1.31221255E-2,1.265862E0,2.7455822E-1,1E0,7.5E-1,2E0,-4.94537E-1,4E0,2.2068134E-2,6.841878E-1,5.031616E-1,7.9016104E-2,1.3996038E0,4E0,-1.7409777E-2,-1.10632125E-2,9.29838E-3,-1.2181554E-2,-1.4447595E-2,-7.2613503E-3,-2.8861796E-3,2.1995045E-2,-1.5120377E-2,-4.4110715E-3,7.3059965E-3,2.2555107E-2,3.2029662E-3,-1.0151087E-2],"split_indices":[103,67,31,26,67,56,31,70,29,0,89,56,94,31,35,0,0,0,0,0,0,0,0,0,0,0,0,0,0],"split_type":[0,0,0,0,0,0,0,0,0,0,0,0,0,0,0,0,0,0,0,0,0,0,0,0,0,0,0,0,0],"sum_hessian":[4.999642E3,1.4824615E3,3.5171807E3,5.9314636E2,8.8931525E2,1.0704423E3,2.4467383E3,5.425854E2,5.056095E1,1.297671E2,7.5954816E2,9.472745E2,1.2316777E2,5.6388226E2,1.8828561E3,1.0144601E2,4.411394E2,2.4784868E1,2.5776081E1,1.9353429E2,5.6601385E2,9.0124146E2,4.6032997E1,9.507192E1,2.8095844E1,1.8954019E2,3.743421E2,1.7244102E3,1.5844582E2],"tree_param":{"num_deleted":"0","num_feature":"104","num_nodes":"29","size_leaf_vector":"1"}},{"base_weights":[1.6288795E-3,-3.332737E-1,3.0219015E-1,-6.880926E-1,-8.372491E-2,4.8181516E-1,-2.5154474E-1,-3.943169E-1,-9.095808E-1,2.3227282E-2,-3.1464314E-1,2.1265315E-1,2.1770509E-2,-4.044153E-1,2.2949822E-1,-1.2539878E-2,2.3113582E-2,-1.3756356E-2,-7.4107186E-3,-1.0762546E-2,-6.095718E-4,9.872182E-3,-1.6167549E-3,-9.304789E-3,-3.045727E-3,1.3948647E-2,-6.058306E-3],"categories":[],"categories_nodes":[],"categories_segments":[],"categories_sizes":[],"default_left":[0,0,0,0,0,0,0,0,0,0,0,0,0,0,0,0,0,0,0,0,0,0,0,0,0,0,0],"id":32,"left_children":[1,3,5,7,9,11,13,15,17,-1,19,21,-1,23,25,-1,-1,-1,-1,-1,-1,-1,-1,-1,-1,-1,-1],"loss_changes":[5.0295013E2,2.0883499E2,2.623111E2,6.2232697E1,5.8082526E2,6.058424E2,4.776468E1,4.8198657E2,2.0421448E1,0E0,1.606171E2,2.789361E2,0E0,2.444857E1,8.6852776E1,0E0,0E0,0E0,0E0,0E0,0E0,0E0,0E0,0E0,0E0,0E0,0E0],"parents":[2147483647,0,0,1,1,2,2,3,3,4,4,5,5,6,6,7,7,8,8,10,10,11,11,13,13,14,14],"right_children":[2,4,6,8,10,12,14,16,18,-1,20,22,-1,24,26,-1,-1,-1,-1,-1,-1,-1,-1,-1,-1,-1,-1],"split_conditions":[1.2710261E0,2.517853E-1,5E-1,2.5E-1,5E-1,4.3320274E-1,3.5400024E-1,1.5141594E-2,1.9678791E-1,2.3227282E-2,5.109509E-1,4.330127E-1,2.1770509E-2,1.3127314E0,4E0,-1.2539878E-2,2.3113582E-2,-1.3756356E-2,-7.4107186E-3,-1.0762546E-2,-6.095718E-4,9.872182E-3,-1.6167549E-3,-9.304789E-3,-3.045727E-3,1.3948647E-2,-6.058306E-3],"split_indices":[92,61,59,61,61,59,26,61,26,0,61,59,0,31,29,0,0,0,0,0,0,0,0,0,0,0,0],"split_type":[0,0,0,0,0,0,0,0,0,0,0,0,0,0,0,0,0,0,0,0,0,0,0,0,0,0,0],"sum_hessian":[4.9924526E3,2.3606934E3,2.6317593E3,9.72663E2,1.3880304E3,1.9878134E3,6.43946E2,4.2128098E2,5.51382E2,1.5554509E2,1.2324852E3,1.6086655E3,3.791478E2,4.8943787E2,1.5450813E2,3.369705E2,8.43105E1,4.175123E2,1.3386974E2,4.388125E2,7.936727E2,6.27045E2,9.816206E2,1.8496529E2,3.0447256E2,7.038857E1,8.411955E1],"tree_param":{"num_deleted":"0","num_feature":"104","num_nodes":"27","size_leaf_vector":"1"}},{"base_weights":[1.122193E-2,-4.3010336E-1,2.421129E-1,-9.169054E-1,-2.7887377E-1,-1.6517131E-1,4.8810992E-1,-7.9861903E-1,-1.3207403E0,2.3580397E-2,-4.4416803E-1,1.4833932E-1,-4.280606E-1,2.2176266E-2,2.5584078E-1,-1.5326446E-2,-7.84806E-3,-1.8144783E-2,-0E0,-1.0508583E-2,-3.0760705E-3,-7.827919E-3,2.205938E-2,-8.868351E-3,-2.9662156E-3,-5.228282E-3,7.28793E-3],"categories":[],"categories_nodes":[],"categories_segments":[],"categories_sizes":[],"default_left":[0,0,0,0,0,0,0,0,0,0,0,0,0,0,0,0,0,0,0,0,0,0,0,0,0,0,0],"id":33,"left_children":[1,3,5,7,9,11,13,15,17,-1,19,21,23,-1,25,-1,-1,-1,-1,-1,-1,-1,-1,-1,-1,-1,-1],"loss_changes":[5.0832648E2,1.25183655E2,3.2849817E2,1.6387848E1,4.4070734E2,1.019859E2,5.4781586E2,2.1383972E1,2.9544373E0,0E0,8.723833E1,6.146555E2,3.1573784E1,0E0,3.132005E2,0E0,0E0,0E0,0E0,0E0,0E0,0E0,0E0,0E0,0E0,0E0,0E0],"parents":[2147483647,0,0,1,1,2,2,3,3,4,4,5,5,6,6,7,7,8,8,10,10,11,11,12,12,14,14],"right_children":[2,4,6,8,10,12,14,16,18,-1,20,22,24,-1,26,-1,-1,-1,-1,-1,-1,-1,-1,-1,-1,-1,-1],"split_conditions":[1.0772943E0,2.0136015E0,2.517853E-1,0E0,3E0,1E0,5E-1,7.018387E-1,2.485073E0,2.3580397E-2,3.0190809E0,1.5141594E-2,1.4595216E-2,2.2176266E-2,5.109509E-1,-1.5326446E-2,-7.84806E-3,-1.8144783E-2,-0E0,-1.0508583E-2,-3.0760705E-3,-7.827919E-3,2.205938E-2,-8.868351E-3,-2.9662156E-3,-5.228282E-3,7.28793E-3],"split_indices":[89,52,61,55,52,62,61,89,86,0,52,61,53,0,61,0,0,0,0,0,0,0,0,0,0,0,0],"split_type":[0,0,0,0,0,0,0,0,0,0,0,0,0,0,0,0,0,0,0,0,0,0,0,0,0,0,0],"sum_hessian":[4.984913E3,1.7110806E3,3.2738325E3,4.025053E2,1.3085752E3,1.2325333E3,2.0412992E3,3.168337E2,8.56716E1,9.691032E1,1.2116649E3,5.6198663E2,6.7054663E2,3.387822E2,1.702517E3,1.1936683E2,1.9746689E2,8.3988304E1,1.683301E0,4.715942E2,7.4007074E2,3.7792032E2,1.8406636E2,3.1546713E2,3.5507947E2,5.217505E2,1.1807665E3],"tree_param":{"num_deleted":"0","num_feature":"104","num_nodes":"27","size_leaf_vector":"1"}},{"base_weights":[1.246353E-3,-5.389253E-1,2.1001041E-1,-3.3256295E-1,-8.1137824E-1,-1.935493E-1,4.633985E-1,-7.259269E-1,2.3963924E-2,-6.289026E-1,-9.698808E-1,-5.611644E-1,3.0210832E-2,2.2313599E-2,-5.637388E-2,-1.3964746E-2,-7.401947E-3,-1.1918081E-2,2.0447144E-2,-1.7225437E-2,-1.1098496E-2,-1.1332576E-2,-4.5871055E-3,2.2021692E-2,-4.6555535E-3,-3.2894562E-3,5.794775E-3],"categories":[],"categories_nodes":[],"categories_segments":[],"categories_sizes":[],"default_left":[0,0,0,0,0,0,0,0,0,0,0,0,0,0,0,0,0,0,0,0,0,0,0,0,0,0,0],"id":34,"left_children":[1,3,5,7,9,11,13,15,-1,17,19,21,23,-1,25,-1,-1,-1,-1,-1,-1,-1,-1,-1,-1,-1,-1],"loss_changes":[5.6065753E2,7.695651E1,3.6707977E2,6.6061005E2,1.5385712E1,1.141004E2,1.3670251E3,3.4990875E1,0E0,1.5811272E2,1.1216766E1,3.1397629E1,5.2105334E2,0E0,1.4049908E2,0E0,0E0,0E0,0E0,0E0,0E0,0E0,0E0,0E0,0E0,0E0,0E0],"parents":[2147483647,0,0,1,1,2,2,3,3,4,4,5,5,6,6,7,7,9,9,10,10,11,11,12,12,14,14],"right_children":[2,4,6,8,10,12,14,16,-1,18,20,22,24,-1,26,-1,-1,-1,-1,-1,-1,-1,-1,-1,-1,-1,-1],"split_conditions":[9.062485E-1,1E0,1.4595216E-2,1.4595216E-2,4.267069E-1,5.6869173E-3,1E0,7.893543E-1,2.3963924E-2,5.6869173E-3,4.2597596E-3,1.300201E0,4.330127E-1,2.2313599E-2,1.0401678E0,-1.3964746E-2,-7.401947E-3,-1.1918081E-2,2.0447144E-2,-1.7225437E-2,-1.1098496E-2,-1.1332576E-2,-4.5871055E-3,2.2021692E-2,-4.6555535E-3,-3.2894562E-3,5.794775E-3],"split_indices":[103,53,53,53,69,69,53,89,0,69,95,89,69,0,53,0,0,0,0,0,0,0,0,0,0,0,0],"split_type":[0,0,0,0,0,0,0,0,0,0,0,0,0,0,0,0,0,0,0,0,0,0,0,0,0,0,0],"sum_hessian":[4.9684893E3,1.383576E3,3.5849133E3,7.9064734E2,5.9292865E2,1.3824048E3,2.2025085E3,6.6775116E2,1.2289622E2,2.8148914E2,3.1143954E2,5.2241925E2,8.599855E2,6.6744336E2,1.5350653E3,2.3784822E2,4.2990292E2,2.5279936E2,2.868976E1,9.424423E1,2.171953E2,2.2715425E2,2.95265E2,1.620264E2,6.9795905E2,1.1088444E3,4.2622095E2],"tree_param":{"num_deleted":"0","num_feature":"104","num_nodes":"27","size_leaf_vector":"1"}},{"base_weights":[-1.1478647E-2,-5.174948E-1,1.978786E-1,-3.0953044E-1,-7.859883E-1,-1.9127552E-1,4.3875042E-1,-7.1639305E-1,2.3670234E-2,-8.5272163E-1,-1.8556541E-1,-5.3124726E-1,-6.0162055E-3,2.2052703E-2,-8.987869E-2,-1.4189661E-2,-7.7009685E-3,-8.0626225E-3,-1.323872E-2,3.9045592E-3,-1.0612304E-2,-4.6618185E-3,-1.1473786E-2,1.582058E-3,-9.725118E-3,-3.7233573E-3,5.193168E-3],"categories":[],"categories_nodes":[],"categories_segments":[],"categories_sizes":[],"default_left":[0,0,0,0,0,0,0,0,0,0,0,0,0,0,0,0,0,0,0,0,0,0,0,0,0,0,0],"id":35,"left_children":[1,3,5,7,9,11,13,15,-1,17,19,21,23,-1,25,-1,-1,-1,-1,-1,-1,-1,-1,-1,-1,-1,-1],"loss_changes":[5.2963477E2,8.082468E1,3.316423E2,6.989456E2,2.4826874E1,8.500161E1,1.3840336E3,3.2041565E1,0E0,1.7090271E1,1.9783377E1,2.7242935E1,7.794223E1,0E0,1.3462273E2,0E0,0E0,0E0,0E0,0E0,0E0,0E0,0E0,0E0,0E0,0E0,0E0],"parents":[2147483647,0,0,1,1,2,2,3,3,4,4,5,5,6,6,7,7,9,9,10,10,11,11,12,12,14,14],"right_children":[2,4,6,8,10,12,14,16,-1,18,20,22,24,-1,26,-1,-1,-1,-1,-1,-1,-1,-1,-1,-1,-1,-1],"split_conditions":[9.155833E-1,1E0,1.4595216E-2,1.4595216E-2,2.4423969E-1,1.1775834E-1,1E0,7.3384154E-1,2.3670234E-2,0E0,9.89394E-1,2E0,5E-1,2.2052703E-2,1.0401678E0,-1.4189661E-2,-7.7009685E-3,-8.0626225E-3,-1.323872E-2,3.9045592E-3,-1.0612304E-2,-4.6618185E-3,-1.1473786E-2,1.582058E-3,-9.725118E-3,-3.7233573E-3,5.193168E-3],"split_indices":[103,53,53,53,26,6,53,89,0,70,26,62,66,0,53,0,0,0,0,0,0,0,0,0,0,0,0],"split_type":[0,0,0,0,0,0,0,0,0,0,0,0,0,0,0,0,0,0,0,0,0,0,0,0,0,0,0],"sum_hessian":[4.9943013E3,1.4611583E3,3.5331428E3,8.266606E2,6.3449774E2,1.3504305E3,2.1827122E3,6.919357E2,1.347249E2,5.697305E2,6.476719E1,4.742937E2,8.7613684E2,6.672466E2,1.5154656E3,2.036386E2,4.8829712E2,1.9716417E2,3.7256638E2,3.649394E1,2.8273252E1,3.0384494E2,1.7044875E2,7.483815E2,1.27755394E2,1.0896465E3,4.2581906E2],"tree_param":{"num_deleted":"0","num_feature":"104","num_nodes":"27","size_leaf_vector":"1"}},{"base_weights":[8.003559E-3,-4.5909822E-1,2.4411006E-1,-2.3080134E-1,-7.498688E-1,-1.448209E-1,4.824203E-1,-6.344539E-1,2.3291923E-2,-8.5251504E-1,-3.0481917E-1,-6.1163807E-1,-7.48343E-4,2.1820124E-2,-1.69848E-2,-1.0594729E-2,-4.92864E-3,-8.916094E-3,-1.3508948E-2,2.3060933E-2,-1.4787106E-2,-1.7239697E-3,-1.0040632E-2,-8.860745E-3,1.6909459E-3,-2.7744817E-3,6.3737645E-3],"categories":[],"categories_nodes":[],"categories_segments":[],"categories_sizes":[],"default_left":[0,0,0,0,0,0,0,0,0,0,0,0,0,0,0,0,0,0,0,0,0,0,0,0,0,0,0],"id":36,"left_children":[1,3,5,7,9,11,13,15,-1,17,19,21,23,-1,25,-1,-1,-1,-1,-1,-1,-1,-1,-1,-1,-1,-1],"loss_changes":[5.4870593E2,1.1018103E2,3.066513E2,7.447918E2,3.2550476E1,8.433762E1,1.1647444E3,3.0828766E1,0E0,1.5034424E1,2.2947813E2,1.860212E1,8.019969E1,0E0,1.3214626E2,0E0,0E0,0E0,0E0,0E0,0E0,0E0,0E0,0E0,0E0,0E0,0E0],"parents":[2147483647,0,0,1,1,2,2,3,3,4,4,5,5,6,6,7,7,9,9,10,10,11,11,12,12,14,14],"right_children":[2,4,6,8,10,12,14,16,-1,18,20,22,24,-1,26,-1,-1,-1,-1,-1,-1,-1,-1,-1,-1,-1,-1],"split_conditions":[9.401001E-1,1E0,1.4595216E-2,1.4595216E-2,1.0401678E0,1.0216854E-1,1E0,2.517853E-1,2.3291923E-2,2E0,2E0,2E0,3.5046635E-3,2.1820124E-2,1.0401678E0,-1.0594729E-2,-4.92864E-3,-8.916094E-3,-1.3508948E-2,2.3060933E-2,-1.4787106E-2,-1.7239697E-3,-1.0040632E-2,-8.860745E-3,1.6909459E-3,-2.7744817E-3,6.3737645E-3],"split_indices":[103,53,53,53,53,6,53,61,0,35,53,29,57,0,53,0,0,0,0,0,0,0,0,0,0,0,0],"split_type":[0,0,0,0,0,0,0,0,0,0,0,0,0,0,0,0,0,0,0,0,0,0,0,0,0,0,0],"sum_hessian":[4.9716904E3,1.66813E3,3.3035603E3,9.372213E2,7.3090875E2,1.2549191E3,2.0486414E3,7.7843646E2,1.5878485E2,5.917416E2,1.3916714E2,2.9379416E2,9.6112494E2,6.240858E2,1.4245554E3,4.941616E2,2.8427487E2,2.6626825E2,3.2547333E2,3.8455776E1,1.00711365E2,6.494677E1,2.288474E2,1.53931E2,8.071939E2,1.029537E3,3.950185E2],"tree_param":{"num_deleted":"0","num_feature":"104","num_nodes":"27","size_leaf_vector":"1"}},{"base_weights":[-5.302225E-3,-5.021181E-1,2.0561847E-1,-2.7447078E-1,-7.95685E-1,-1.6582136E-1,4.3988255E-1,-6.5992874E-1,2.3218585E-2,-8.7467575E-1,-4.1540146E-1,-7.57326E-1,-4.8510503E-2,2.1693971E-2,-7.062679E-2,-8.010848E-3,-1.6352417E-2,-1.4697485E-2,-1.0610349E-2,2.3069141E-2,-1.49809215E-2,-1.3773035E-2,-7.309543E-3,2.2804692E-2,-3.233253E-3,-3.4299125E-3,5.6745308E-3],"categories":[],"categories_nodes":[],"categories_segments":[],"categories_sizes":[],"default_left":[0,0,0,0,0,0,0,0,0,0,0,0,0,0,0,0,0,0,0,0,0,0,0,0,0,0,0],"id":37,"left_children":[1,3,5,7,9,11,13,15,-1,17,19,21,23,-1,25,-1,-1,-1,-1,-1,-1,-1,-1,-1,-1,-1,-1],"loss_changes":[5.2486255E2,9.895111E1,3.0609946E2,6.5240717E2,1.8334534E1,9.405461E1,1.2887523E3,2.360086E1,0E0,7.662201E0,1.7651877E2,1.1078247E1,3.795353E2,0E0,1.3608595E2,0E0,0E0,0E0,0E0,0E0,0E0,0E0,0E0,0E0,0E0,0E0,0E0],"parents":[2147483647,0,0,1,1,2,2,3,3,4,4,5,5,6,6,7,7,9,9,10,10,11,11,12,12,14,14],"right_children":[2,4,6,8,10,12,14,16,-1,18,20,22,24,-1,26,-1,-1,-1,-1,-1,-1,-1,-1,-1,-1,-1,-1],"split_conditions":[9.2025596E-1,1E0,1.4595216E-2,1.4595216E-2,1.0401678E0,3.5046635E-3,1E0,1.6E1,2.3218585E-2,7.5424975E-1,2E0,4.3676275E-1,9.9648917E-1,2.1693971E-2,1.0401678E0,-8.010848E-3,-1.6352417E-2,-1.4697485E-2,-1.0610349E-2,2.3069141E-2,-1.49809215E-2,-1.3773035E-2,-7.309543E-3,2.2804692E-2,-3.233253E-3,-3.4299125E-3,5.6745308E-3],"split_indices":[103,53,53,53,53,57,53,2,0,103,53,64,57,0,53,0,0,0,0,0,0,0,0,0,0,0,0],"split_type":[0,0,0,0,0,0,0,0,0,0,0,0,0,0,0,0,0,0,0,0,0,0,0,0,0,0,0],"sum_hessian":[5.0036206E3,1.4907859E3,3.512835E3,8.426126E2,6.481733E2,1.3583248E3,2.15451E3,7.0763495E2,1.3497766E2,5.336882E2,1.1448514E2,2.2242386E2,1.135901E3,6.5336725E2,1.5011428E3,6.372148E2,7.042016E1,1.4562642E2,3.8806174E2,2.735091E1,8.7134224E1,9.542159E1,1.27002266E2,1.10712494E2,1.0251885E3,1.0937897E3,4.073532E2],"tree_param":{"num_deleted":"0","num_feature":"104","num_nodes":"27","size_leaf_vector":"1"}},{"base_weights":[1.0060713E-2,-4.0819806E-1,2.3298655E-1,-7.8764874E-1,-2.3887332E-1,-1.6429462E-1,4.4622263E-1,-8.585828E-1,-3.5342172E-1,5.295009E-1,-4.9600148E-1,-5.7080936E-1,-5.289265E-4,2.1596266E-2,-4.7690935E-2,-1.3612521E-2,-9.040623E-3,-1.25561375E-2,-1.7537497E-3,-2.8020923E-3,2.0513404E-2,-1.23503795E-2,-4.485571E-3,-1.1138521E-2,-4.9015894E-3,2.6117605E-3,-5.1513626E-3,1.5079785E-3,-5.8640246E-3],"categories":[],"categories_nodes":[],"categories_segments":[],"categories_sizes":[],"default_left":[0,0,0,0,0,0,0,0,0,0,0,0,0,0,0,0,0,0,0,0,0,0,0,0,0,0,0,0,0],"id":38,"left_children":[1,3,5,7,9,11,13,15,17,19,21,23,25,-1,27,-1,-1,-1,-1,-1,-1,-1,-1,-1,-1,-1,-1,-1,-1],"loss_changes":[4.6524664E2,1.1070419E2,2.7606183E2,1.5390991E1,2.3822133E2,7.557937E1,1.2112699E3,1.0991638E1,9.615254E0,2.2241476E2,6.0865997E1,1.6243301E1,6.0602043E1,0E0,9.216049E1,0E0,0E0,0E0,0E0,0E0,0E0,0E0,0E0,0E0,0E0,0E0,0E0,0E0,0E0],"parents":[2147483647,0,0,1,1,2,2,3,3,4,4,5,5,6,6,7,7,8,8,9,9,10,10,11,11,12,12,14,14],"right_children":[2,4,6,8,10,12,14,16,18,20,22,24,26,-1,28,-1,-1,-1,-1,-1,-1,-1,-1,-1,-1,-1,-1,-1,-1],"split_conditions":[9.483646E-1,1.2354709E0,3.7415389E-3,1.4034996E0,2E0,1.1512824E0,4.330127E-1,2.517853E-1,1.5141594E-2,1.3780558E0,5.1259834E-2,1.4595216E-2,2.5E-1,2.1596266E-2,5E-1,-1.3612521E-2,-9.040623E-3,-1.25561375E-2,-1.7537497E-3,-2.8020923E-3,2.0513404E-2,-1.23503795E-2,-4.485571E-3,-1.1138521E-2,-4.9015894E-3,2.6117605E-3,-5.1513626E-3,1.5079785E-3,-5.8640246E-3],"split_indices":[103,25,66,89,25,89,69,61,61,25,32,53,60,0,66,0,0,0,0,0,0,0,0,0,0,0,0,0,0],"split_type":[0,0,0,0,0,0,0,0,0,0,0,0,0,0,0,0,0,0,0,0,0,0,0,0,0,0,0,0,0],"sum_hessian":[4.986086E3,1.7324211E3,3.253665E3,5.3154517E2,1.200876E3,1.1360352E3,2.11763E3,4.544674E2,7.707776E1,3.0021274E2,9.006632E2,3.2413562E2,8.1189954E2,6.3260065E2,1.4850292E3,2.4539365E2,2.0907376E2,1.9183695E1,5.789407E1,1.7301834E2,1.2719438E2,2.4850334E2,6.5215985E2,1.4149388E2,1.8264174E2,5.3811755E2,2.7378195E2,1.0522477E3,4.3278143E2],"tree_param":{"num_deleted":"0","num_feature":"104","num_nodes":"29","size_leaf_vector":"1"}},{"base_weights":[-5.880074E-4,-3.197796E-1,2.8482705E-1,-9.4931096E-1,-1.9551942E-1,5.269859E-2,6.465075E-1,-7.47874E-1,-1.1295158E0,2.3398345E-2,-3.9997795E-1,-3.1893688E-1,2.626489E-1,2.2400022E-2,1.4020161E-1,-1.282322E-2,1.9158874E-2,-1.5425691E-2,-0E0,-9.69584E-3,-2.4803237E-3,-5.8262115E-3,1.7201321E-3,2.1104867E-2,-2.3940564E-3,-4.159019E-3,6.880795E-3],"categories":[],"categories_nodes":[],"categories_segments":[],"categories_sizes":[],"default_left":[0,0,0,0,0,0,0,0,0,0,0,0,0,0,0,0,0,0,0,0,0,0,0,0,0,0,0],"id":39,"left_children":[1,3,5,7,9,11,13,15,17,-1,19,21,23,-1,25,-1,-1,-1,-1,-1,-1,-1,-1,-1,-1,-1,-1],"loss_changes":[4.5189465E2,1.8243689E2,2.1950034E2,1.1564117E1,7.747971E2,1.2480435E2,5.2480005E2,8.619899E1,3.5435486E0,0E0,1.2176291E2,2.943832E1,5.878665E2,0E0,1.14268105E2,0E0,0E0,0E0,0E0,0E0,0E0,0E0,0E0,0E0,0E0,0E0,0E0],"parents":[2147483647,0,0,1,1,2,2,3,3,4,4,5,5,6,6,7,7,8,8,10,10,11,11,12,12,14,14],"right_children":[2,4,6,8,10,12,14,16,18,-1,20,22,24,-1,26,-1,-1,-1,-1,-1,-1,-1,-1,-1,-1,-1,-1],"split_conditions":[1.2710261E0,9.370103E-3,1.0290078E0,1E0,4.330127E-1,3.7415389E-3,2E0,3.7415389E-3,1.1931722E0,2.3398345E-2,5.6869173E-3,3.9793825E-1,1E0,2.2400022E-2,2.066797E0,-1.282322E-2,1.9158874E-2,-1.5425691E-2,-0E0,-9.69584E-3,-2.4803237E-3,-5.8262115E-3,1.7201321E-3,2.1104867E-2,-2.3940564E-3,-4.159019E-3,6.880795E-3],"split_indices":[89,59,62,67,59,66,62,66,26,0,69,26,67,0,62,0,0,0,0,0,0,0,0,0,0,0,0],"split_type":[0,0,0,0,0,0,0,0,0,0,0,0,0,0,0,0,0,0,0,0,0,0,0,0,0,0,0],"sum_hessian":[4.9559473E3,2.3399717E3,2.6159756E3,3.8297684E2,1.956995E3,1.5953923E3,1.02058325E3,1.868588E2,1.9611804E2,1.8563225E2,1.7713627E3,5.749607E2,1.0204316E3,3.376917E2,6.8289154E2,1.720517E2,1.4807102E1,1.9362318E2,2.4948635E0,7.117779E2,1.0595848E3,4.5918884E2,1.15771866E2,2.564913E2,7.6394025E2,3.0850366E2,3.7438785E2],"tree_param":{"num_deleted":"0","num_feature":"104","num_nodes":"27","size_leaf_vector":"1"}},{"base_weights":[-1.5296061E-2,-4.0658435E-1,2.5277722E-1,-8.689316E-1,-2.7752012E-1,3.516804E-1,-6.0000056E-1,-1.153941E0,-7.8144544E-1,-6.305732E-1,-7.084697E-2,2.4040227E-1,2.1974321E-2,-7.814156E-1,1.4838375E-1,-1.5991798E-2,2.1427006E-3,-1.0766872E-2,5.851725E-3,-1.3349532E-2,-6.705025E-3,2.1364868E-2,-5.5205333E-3,6.038173E-3,-3.6722622E-3,2.5114215E-3,-1.160339E-2,2.0665947E-2,-9.138587E-3],"categories":[],"categories_nodes":[],"categories_segments":[],"categories_sizes":[],"default_left":[0,0,0,0,0,0,0,0,0,0,0,0,0,0,0,0,0,0,0,0,0,0,0,0,0,0,0,0,0],"id":40,"left_children":[1,3,5,7,9,11,13,15,17,19,21,23,-1,25,27,-1,-1,-1,-1,-1,-1,-1,-1,-1,-1,-1,-1,-1,-1],"loss_changes":[5.2119775E2,1.1967053E2,2.4900084E2,8.40033E0,1.1519051E2,3.7471048E2,4.210977E1,4.9421997E0,8.160141E0,2.6416885E1,5.629708E2,2.595816E2,0E0,1.9637741E1,7.2639435E1,0E0,0E0,0E0,0E0,0E0,0E0,0E0,0E0,0E0,0E0,0E0,0E0,0E0,0E0],"parents":[2147483647,0,0,1,1,2,2,3,3,4,4,5,5,6,6,7,7,8,8,9,9,10,10,11,11,13,13,14,14],"right_children":[2,4,6,8,10,12,14,16,18,20,22,24,-1,26,28,-1,-1,-1,-1,-1,-1,-1,-1,-1,-1,-1,-1,-1,-1],"split_conditions":[9.80231E-1,4.940114E-2,7.5E-1,1.580393E-2,3.7415389E-3,5.031616E-1,5.050014E-3,2.5601435E-1,5.9440434E-3,4.524632E-2,2.5E-1,5E-1,2.1974321E-2,1.981359E-1,1E0,-1.5991798E-2,2.1427006E-3,-1.0766872E-2,5.851725E-3,-1.3349532E-2,-6.705025E-3,2.1364868E-2,-5.5205333E-3,6.038173E-3,-3.6722622E-3,2.5114215E-3,-1.160339E-2,2.0665947E-2,-9.138587E-3],"split_indices":[103,32,56,32,66,56,58,75,63,62,66,56,0,20,56,0,0,0,0,0,0,0,0,0,0,0,0,0,0],"split_type":[0,0,0,0,0,0,0,0,0,0,0,0,0,0,0,0,0,0,0,0,0,0,0,0,0,0,0,0,0],"sum_hessian":[4.964125E3,2.0182997E3,2.9458254E3,4.3724222E2,1.5810575E3,2.6411467E3,3.0467874E2,9.573467E1,3.4150757E2,5.815898E2,9.994677E2,2.4322837E3,2.0886305E2,2.455155E2,5.916324E1,9.385526E1,1.8794079E0,3.3765134E2,3.8562126E0,1.525777E2,4.290121E2,1.6824208E2,8.3122565E2,1.7319984E3,7.0028516E2,1.812207E1,2.2739343E2,2.1583681E1,3.7579556E1],"tree_param":{"num_deleted":"0","num_feature":"104","num_nodes":"29","size_leaf_vector":"1"}},{"base_weights":[5.140907E-3,-5.261488E-1,1.740636E-1,-3.2412037E-1,-7.792852E-1,3.37857E-1,-3.455178E-1,-6.750321E-1,2.2769954E-2,-7.057828E-1,-1.1705753E0,7.082376E-2,2.1313751E-2,-5.257666E-1,-2.9771344E-3,-1.2740754E-2,-6.4730523E-3,-1.1322467E-2,2.2323113E-2,2.6038033E-4,-1.6282521E-2,7.140531E-3,-2.869931E-3,-3.5780412E-3,-1.0453644E-2,1.1064034E-3,-1.0551479E-2],"categories":[],"categories_nodes":[],"categories_segments":[],"categories_sizes":[],"default_left":[0,0,0,0,0,0,0,0,0,0,0,0,0,0,0,0,0,0,0,0,0,0,0,0,0,0,0],"id":41,"left_children":[1,3,5,7,9,11,13,15,-1,17,19,21,-1,23,25,-1,-1,-1,-1,-1,-1,-1,-1,-1,-1,-1,-1],"loss_changes":[4.4792273E2,6.0664978E1,3.2264697E2,4.7827194E2,1.2928894E1,9.562988E2,5.5917183E1,2.8861816E1,0E0,1.4678929E2,4.0374527E0,3.09706E2,0E0,3.789673E1,2.1339779E1,0E0,0E0,0E0,0E0,0E0,0E0,0E0,0E0,0E0,0E0,0E0,0E0],"parents":[2147483647,0,0,1,1,2,2,3,3,4,4,5,5,6,6,7,7,9,9,10,10,11,11,13,13,14,14],"right_children":[2,4,6,8,10,12,14,16,-1,18,20,22,-1,24,26,-1,-1,-1,-1,-1,-1,-1,-1,-1,-1,-1,-1],"split_conditions":[8.8802063E-1,1E0,5E-1,1.4595216E-2,2E0,4.3320274E-1,1.7222794E0,8.234093E-1,2.2769954E-2,1.0401678E0,2.2933508E-1,4.330127E-1,2.1313751E-2,4.330127E-1,6.479937E-2,-1.2740754E-2,-6.4730523E-3,-1.1322467E-2,2.2323113E-2,2.6038033E-4,-1.6282521E-2,7.140531E-3,-2.869931E-3,-3.5780412E-3,-1.0453644E-2,1.1064034E-3,-1.0551479E-2],"split_indices":[103,53,59,53,53,59,92,92,0,53,20,59,0,69,23,0,0,0,0,0,0,0,0,0,0,0,0],"split_type":[0,0,0,0,0,0,0,0,0,0,0,0,0,0,0,0,0,0,0,0,0,0,0,0,0,0,0],"sum_hessian":[4.9879844E3,1.2017694E3,3.7862148E3,6.71773E2,5.299964E2,2.879774E3,9.0644086E2,5.734213E2,9.835168E1,4.5189853E2,7.809783E1,2.372809E3,5.069649E2,5.925359E2,3.1390497E2,2.3593878E2,3.3748257E2,4.2900067E2,2.2897861E1,2.1541765E0,7.594366E1,9.0625476E2,1.4665543E3,2.9305325E2,2.9948264E2,2.843564E2,2.9548561E1],"tree_param":{"num_deleted":"0","num_feature":"104","num_nodes":"27","size_leaf_vector":"1"}},{"base_weights":[-8.027628E-3,-4.9545234E-1,1.7601484E-1,-3.6785895E-1,-8.769351E-1,-6.056624E-1,2.8500825E-1,-5.7574266E-1,2.3742687E-2,-7.086486E-1,-1.0990473E0,-7.361392E-1,-1.1260309E-1,2.2204546E-2,6.735332E-2,-2.8852061E-3,-1.041795E-2,-1.4435665E-2,-7.996595E-3,-1.5480331E-2,-3.0001434E-3,-1.3375268E-2,-7.359746E-3,-1.3766071E-2,9.300785E-5,-2.878562E-3,4.7406293E-3],"categories":[],"categories_nodes":[],"categories_segments":[],"categories_sizes":[],"default_left":[0,0,0,0,0,0,0,0,0,0,0,0,0,0,0,0,0,0,0,0,0,0,0,0,0,0,0],"id":42,"left_children":[1,3,5,7,9,11,13,15,-1,17,19,21,23,-1,25,-1,-1,-1,-1,-1,-1,-1,-1,-1,-1,-1,-1],"loss_changes":[4.423136E2,6.469092E1,3.0508932E2,4.5205872E2,1.0328735E1,2.7728455E1,9.310254E2,6.5566284E1,0E0,6.3865204E0,5.108307E0,1.5171204E1,1.0640807E1,0E0,2.1687685E2,0E0,0E0,0E0,0E0,0E0,0E0,0E0,0E0,0E0,0E0,0E0,0E0],"parents":[2147483647,0,0,1,1,2,2,3,3,4,4,5,5,6,6,7,7,9,9,10,10,11,11,12,12,14,14],"right_children":[2,4,6,8,10,12,14,16,-1,18,20,22,24,-1,26,-1,-1,-1,-1,-1,-1,-1,-1,-1,-1,-1,-1],"split_conditions":[9.062485E-1,5E-1,9.370103E-3,4.3320274E-1,4.6866414E-1,1.9472569E0,4.330127E-1,4.330127E-1,2.3742687E-2,7.4998045E-1,2.810674E-1,1.3628397E0,2.422957E-1,2.2204546E-2,4.3320274E-1,-2.8852061E-3,-1.041795E-2,-1.4435665E-2,-7.996595E-3,-1.5480331E-2,-3.0001434E-3,-1.3375268E-2,-7.359746E-3,-1.3766071E-2,9.300785E-5,-2.878562E-3,4.7406293E-3],"split_indices":[103,59,59,59,20,92,59,59,0,103,26,31,5,0,59,0,0,0,0,0,0,0,0,0,0,0,0],"split_type":[0,0,0,0,0,0,0,0,0,0,0,0,0,0,0,0,0,0,0,0,0,0,0,0,0,0,0],"sum_hessian":[4.925292E3,1.3494877E3,3.5758044E3,1.0150281E3,3.3445963E2,4.3602417E2,3.1397803E3,9.263083E2,8.8719795E1,1.9618939E2,1.3827022E2,3.4342462E2,9.259953E1,4.303199E2,2.7094604E3,3.2912106E2,5.9718726E2,4.2401024E1,1.5378836E2,1.2987685E2,8.393382E0,1.41648E2,2.0177663E2,9.227262E0,8.337228E1,1.3627054E3,1.346755E3],"tree_param":{"num_deleted":"0","num_feature":"104","num_nodes":"27","size_leaf_vector":"1"}},{"base_weights":[1.4606652E-2,-4.5660093E-1,2.2171983E-1,-8.7783813E-1,-3.2652262E-1,-1.5784803E-1,4.2578158E-1,-9.055454E-1,-0E0,-7.34418E-1,-1.3011155E-1,-7.086364E-2,-8.3952963E-1,2.1176869E-2,1.9990154E-2,3.1202522E-3,-1.24708405E-2,8.004931E-3,-6.1126165E-3,-1.3771919E-2,-8.234008E-3,-7.099599E-3,1.3379636E-3,-1.9978695E-3,2.1393038E-2,-1.5218452E-2,-6.237245E-3,-3.4459666E-3,5.0540497E-3],"categories":[],"categories_nodes":[],"categories_segments":[],"categories_sizes":[],"default_left":[0,0,0,0,0,0,0,0,0,0,0,0,0,0,0,0,0,0,0,0,0,0,0,0,0,0,0,0,0],"id":43,"left_children":[1,3,5,7,9,11,13,15,17,19,21,23,25,-1,27,-1,-1,-1,-1,-1,-1,-1,-1,-1,-1,-1,-1,-1,-1],"loss_changes":[4.851882E2,8.215454E1,2.6780176E2,8.8524475E0,9.273318E1,7.1248215E1,1.0443511E3,8.474487E0,4.045215E0,1.1518539E1,7.2010475E1,1.3793742E2,1.3223457E1,0E0,1.6293947E2,0E0,0E0,0E0,0E0,0E0,0E0,0E0,0E0,0E0,0E0,0E0,0E0,0E0,0E0],"parents":[2147483647,0,0,1,1,2,2,3,3,4,4,5,5,6,6,7,7,8,8,9,9,10,10,11,11,12,12,14,14],"right_children":[2,4,6,8,10,12,14,16,18,20,22,24,26,-1,28,-1,-1,-1,-1,-1,-1,-1,-1,-1,-1,-1,-1,-1,-1],"split_conditions":[9.247133E-1,7.4494845E-1,3.7415389E-3,2.1433334E-1,-5.9955883E-1,7.5E-1,2.5E-1,-3.4861887E-1,7.6504934E-1,1.2354709E0,3.7415389E-3,5.031616E-1,1.1360365E0,2.1176869E-2,2.5840068E-1,3.1202522E-3,-1.24708405E-2,8.004931E-3,-6.1126165E-3,-1.3771919E-2,-8.234008E-3,-7.099599E-3,1.3379636E-3,-1.9978695E-3,2.1393038E-2,-1.5218452E-2,-6.237245E-3,-3.4459666E-3,5.0540497E-3],"split_indices":[103,103,66,26,48,56,66,50,30,25,66,56,103,0,66,0,0,0,0,0,0,0,0,0,0,0,0,0,0],"split_type":[0,0,0,0,0,0,0,0,0,0,0,0,0,0,0,0,0,0,0,0,0,0,0,0,0,0,0,0,0],"sum_hessian":[4.968019E3,1.515626E3,3.4523933E3,3.541223E2,1.1615037E3,1.2067002E3,2.245693E3,3.4345135E2,1.0670962E1,3.7507373E2,7.8642993E2,1.0726537E3,1.340465E2,5.855921E2,1.660101E3,5.209414E0,3.3824194E2,4.5344243E0,6.1365385E0,1.0722158E2,2.6785214E2,2.8766525E2,4.987647E2,1.0268647E3,4.578895E1,7.288029E1,6.116621E1,9.342742E2,7.2582684E2],"tree_param":{"num_deleted":"0","num_feature":"104","num_nodes":"29","size_leaf_vector":"1"}},{"base_weights":[-1.5737427E-2,-4.9927992E-1,1.6414626E-1,-8.353208E-1,-3.5767916E-1,-1.5503268E-1,4.1747308E-1,-5.425835E-1,-9.8578924E-1,-1.2741005E-1,-6.445303E-1,-5.783594E-1,4.2509013E-3,2.0964632E-2,-2.997226E-2,-1.0948614E-2,2.0693373E-2,-1.5256088E-2,-9.358025E-3,-7.8099817E-3,2.2334686E-2,-1.0220041E-2,-3.1943242E-3,-9.3417065E-3,1.3090634E-3,2.150353E-2,-2.500339E-3,2.195114E-2,-1.9293008E-3],"categories":[],"categories_nodes":[],"categories_segments":[],"categories_sizes":[],"default_left":[0,0,0,0,0,0,0,0,0,0,0,0,0,0,0,0,0,0,0,0,0,0,0,0,0,0,0,0,0],"id":44,"left_children":[1,3,5,7,9,11,13,15,17,19,21,23,25,-1,27,-1,-1,-1,-1,-1,-1,-1,-1,-1,-1,-1,-1,-1,-1],"loss_changes":[4.2893585E2,6.2600372E1,2.907381E2,1.5719269E1,6.2002464E1,1.0746248E2,1.0213075E3,8.049863E1,8.678925E0,4.273855E2,1.8755844E1,3.4119186E1,3.5065073E2,0E0,2.7046835E2,0E0,0E0,0E0,0E0,0E0,0E0,0E0,0E0,0E0,0E0,0E0,0E0,0E0,0E0],"parents":[2147483647,0,0,1,1,2,2,3,3,4,4,5,5,6,6,7,7,8,8,9,9,10,10,11,11,12,12,14,14],"right_children":[2,4,6,8,10,12,14,16,18,20,22,24,26,-1,28,-1,-1,-1,-1,-1,-1,-1,-1,-1,-1,-1,-1,-1,-1],"split_conditions":[9.6997017E-1,6.116536E-1,1.6407366E-3,0E0,1E0,1.8856222E-2,1E0,-2.4888732E-1,2.487846E-1,1.4595216E-2,1.0401678E0,2.25536E0,4.330127E-1,2.0964632E-2,1E0,-1.0948614E-2,2.0693373E-2,-1.5256088E-2,-9.358025E-3,-7.8099817E-3,2.2334686E-2,-1.0220041E-2,-3.1943242E-3,-9.3417065E-3,1.3090634E-3,2.150353E-2,-2.500339E-3,2.195114E-2,-1.9293008E-3],"split_indices":[89,89,98,70,53,64,67,70,72,53,53,89,64,0,62,0,0,0,0,0,0,0,0,0,0,0,0,0,0],"split_type":[0,0,0,0,0,0,0,0,0,0,0,0,0,0,0,0,0,0,0,0,0,0,0,0,0,0,0,0,0],"sum_hessian":[4.925953E3,1.335123E3,3.5908303E3,3.9203433E2,9.430886E2,1.58868E3,2.0021503E3,1.3715956E2,2.5487479E2,5.254807E2,4.1760794E2,4.3338818E2,1.1552919E3,5.637219E2,1.4384283E3,1.2268024E2,1.44793215E1,1.6487228E2,9.0002495E1,4.2055914E2,1.0492156E2,3.2436514E2,9.3242805E1,3.7079843E2,6.2589745E1,1.21612595E2,1.0336793E3,8.988082E1,1.3485475E3],"tree_param":{"num_deleted":"0","num_feature":"104","num_nodes":"29","size_leaf_vector":"1"}},{"base_weights":[-5.227137E-3,-5.162395E-1,1.6845721E-1,-8.7711215E-1,-3.4852195E-1,-2.1695668E-1,4.082247E-1,-7.801225E-1,-1.2802076E0,-6.8002605E-1,-1.3067722E-1,1.0862864E-1,-4.8023793E-1,2.144232E-2,1.8211336E-1,-1.1176226E-2,1.7377513E-2,-1.7697351E-2,-0E0,-7.5088823E-3,-1.6141357E-2,2.1065518E-2,-6.3906205E-3,-7.699488E-3,2.1304041E-2,-8.305609E-3,-9.445554E-4,-4.610947E-3,5.724151E-3],"categories":[],"categories_nodes":[],"categories_segments":[],"categories_sizes":[],"default_left":[0,0,0,0,0,0,0,0,0,0,0,0,0,0,0,0,0,0,0,0,0,0,0,0,0,0,0,0,0],"id":45,"left_children":[1,3,5,7,9,11,13,15,17,19,21,23,25,-1,27,-1,-1,-1,-1,-1,-1,-1,-1,-1,-1,-1,-1,-1,-1],"loss_changes":[4.3726724E2,7.4592896E1,3.3990686E2,1.2623535E1,6.146354E1,1.2114143E2,6.0516565E2,3.510254E1,3.3367157E0,1.955606E1,3.041547E2,6.3467487E2,4.3253006E1,0E0,2.4277917E2,0E0,0E0,0E0,0E0,0E0,0E0,0E0,0E0,0E0,0E0,0E0,0E0,0E0,0E0],"parents":[2147483647,0,0,1,1,2,2,3,3,4,4,5,5,6,6,7,7,8,8,9,9,10,10,11,11,12,12,14,14],"right_children":[2,4,6,8,10,12,14,16,18,20,22,24,26,-1,28,-1,-1,-1,-1,-1,-1,-1,-1,-1,-1,-1,-1,-1,-1],"split_conditions":[9.396031E-1,6.116536E-1,2.517853E-1,5E-1,3.7415389E-3,1E0,5E-1,2.5840068E-1,2.2741826E-1,-1.7116694E-1,2.5E-1,1.5141594E-2,1.1168826E0,2.144232E-2,5.109509E-1,-1.1176226E-2,1.7377513E-2,-1.7697351E-2,-0E0,-7.5088823E-3,-1.6141357E-2,2.1065518E-2,-6.3906205E-3,-7.699488E-3,2.1304041E-2,-8.305609E-3,-9.445554E-4,-4.610947E-3,5.724151E-3],"split_indices":[92,92,61,66,66,62,61,66,12,46,66,61,103,0,61,0,0,0,0,0,0,0,0,0,0,0,0,0,0],"split_type":[0,0,0,0,0,0,0,0,0,0,0,0,0,0,0,0,0,0,0,0,0,0,0,0,0,0,0,0,0],"sum_hessian":[4.921187E3,1.2477655E3,3.6734214E3,3.9243347E2,8.553321E2,1.4083625E3,2.2650588E3,3.2199988E2,7.0433586E1,3.3679407E2,5.18538E2,6.296667E2,7.786958E2,3.612099E2,1.9038489E3,3.1592236E2,6.0775137E0,6.876986E1,1.6637256E0,2.762768E2,6.0517273E1,8.6002205E1,4.325358E2,4.3146014E2,1.9820654E2,5.833142E2,1.9538159E2,6.016416E2,1.3022073E3],"tree_param":{"num_deleted":"0","num_feature":"104","num_nodes":"29","size_leaf_vector":"1"}},{"base_weights":[2.8890788E-4,-4.7014204E-1,1.81765E-1,-8.689011E-1,-3.3191025E-1,-1.9810452E-1,4.1752866E-1,-1.1359679E0,-6.9919246E-1,-6.7121005E-1,-1.1483332E-1,1.15293644E-1,-4.6040404E-1,2.1269184E-2,1.9090708E-1,5.0796187E-3,-1.5644075E-2,-1.2366189E-2,-6.34274E-3,-1.0369913E-2,-3.0697994E-3,2.1046627E-2,-6.5526925E-3,-7.2157406E-3,2.1064803E-2,-8.989881E-3,-3.3148516E-3,-4.8597804E-3,5.967372E-3],"categories":[],"categories_nodes":[],"categories_segments":[],"categories_sizes":[],"default_left":[0,0,0,0,0,0,0,0,0,0,0,0,0,0,0,0,0,0,0,0,0,0,0,0,0,0,0,0,0],"id":46,"left_children":[1,3,5,7,9,11,13,15,17,19,21,23,25,-1,27,-1,-1,-1,-1,-1,-1,-1,-1,-1,-1,-1,-1,-1,-1],"loss_changes":[4.2217014E2,7.4857544E1,3.1995706E2,1.3677368E1,7.515376E1,1.126818E2,5.7849207E2,6.181961E0,9.690926E0,1.6695953E1,3.928585E2,5.9035614E2,3.2395462E1,0E0,2.5688934E2,0E0,0E0,0E0,0E0,0E0,0E0,0E0,0E0,0E0,0E0,0E0,0E0,0E0,0E0],"parents":[2147483647,0,0,1,1,2,2,3,3,4,4,5,5,6,6,7,7,8,8,9,9,10,10,11,11,12,12,14,14],"right_children":[2,4,6,8,10,12,14,16,18,20,22,24,26,-1,28,-1,-1,-1,-1,-1,-1,-1,-1,-1,-1,-1,-1,-1,-1],"split_conditions":[9.8316556E-1,5.888296E-1,2.517853E-1,1.5959385E-1,5.6869173E-3,4.330127E-1,5E-1,-1.5238178E-1,2.751085E-2,7.611343E-1,4.330127E-1,1.8856222E-2,1.2004943E0,2.1269184E-2,5.109509E-1,5.0796187E-3,-1.5644075E-2,-1.2366189E-2,-6.34274E-3,-1.0369913E-2,-3.0697994E-3,2.1046627E-2,-6.5526925E-3,-7.2157406E-3,2.1064803E-2,-8.989881E-3,-3.3148516E-3,-4.8597804E-3,5.967372E-3],"split_indices":[89,89,61,72,69,64,61,85,32,61,69,64,24,0,61,0,0,0,0,0,0,0,0,0,0,0,0,0,0],"split_type":[0,0,0,0,0,0,0,0,0,0,0,0,0,0,0,0,0,0,0,0,0,0,0,0,0,0,0,0,0],"sum_hessian":[4.9419556E3,1.3742789E3,3.5676768E3,3.5026346E2,1.0240155E3,1.3658701E3,2.2018066E3,1.3064613E2,2.1961732E2,3.9720398E2,6.268115E2,6.2227997E2,7.435902E2,3.573655E2,1.844441E3,1.4107614E0,1.2923538E2,1.0828747E2,1.1132985E2,3.2325922E2,7.394475E1,1.1227837E2,5.145332E2,4.3007922E2,1.9220073E2,3.7558267E2,3.6800754E2,5.775783E2,1.2668628E3],"tree_param":{"num_deleted":"0","num_feature":"104","num_nodes":"29","size_leaf_vector":"1"}},{"base_weights":[1.685701E-3,-6.3601017E-1,1.2848428E-1,-7.3818266E-1,-2.2698468E-1,2.9405507E-1,-4.0594697E-1,-9.534634E-1,-5.600572E-1,4.6703598E-1,-3.8401407E-1,3.808196E-2,2.116499E-2,2.612117E-1,-4.991277E-1,-1.3557285E-2,-3.666523E-3,2.1928614E-2,-9.702191E-3,-3.394324E-3,1.9062636E-2,-8.330315E-3,1.9869893E-5,6.049082E-3,-3.0375712E-3,-4.5038187E-3,1.9318642E-2,-1.0631752E-2,-3.915063E-3],"categories":[],"categories_nodes":[],